{"calc_freq": 1, "frame_length": 0.025, "inputSize": [31, 26, 1], "layers": [{"bias": [-0.13136066496372223, 0.023967579007148743, -0.9241117835044861, -0.9848710298538208, -0.3976779282093048, -0.14651475846767426, 0.04339192435145378, -4.627169609069824, -0.10322795808315277, -0.26058587431907654, 0.07645630836486816, -1.708611011505127, -0.10313582420349121, -0.0827292650938034, -0.43191593885421753, 0.08204581588506699, -0.34189972281455994, -0.14580675959587097, -0.2169647067785263, -0.42956024408340454, -0.418734610080719, -0.5050758719444275, 0.03792380169034004, -0.11098568141460419, 0.2943480610847473, -0.8747940063476562, 0.048778776079416275, -0.7113999128341675, -0.09898953884840012, -0.6651037335395813, -0.5489665269851685, -0.03546931594610214, -0.7208859920501709, 0.2939322292804718, -0.4877067804336548, -0.807304322719574, -0.07253420352935791, -0.7008910775184631, -0.5472152829170227, 0.07574359327554703, -0.1613449901342392, -0.0389067605137825, -0.6748455762863159, -0.14529860019683838, -0.09677499532699585, -0.07031841576099396, -0.12804879248142242, -0.5271535515785217, -0.5042179226875305, 0.2334291785955429, -0.5705544352531433, -0.12244216352701187, -0.3620430529117584, -0.06823498010635376, -0.16835322976112366, -0.9513633847236633, 0.36470720171928406, 0.0332225076854229, -1.108717679977417, -0.26920950412750244, -0.03442956134676933, 0.14499077200889587, 0.01373707689344883, -1.2180943489074707, 0.033367905765771866, -0.5764909982681274, -0.19929853081703186, -0.12348568439483643, 3.492403030395508, -0.1397915482521057, -0.6278430819511414, 0.47729960083961487, -0.2730816602706909, -1.0315202474594116, -0.4152413010597229, -0.09374561160802841, 0.09068480879068375, -0.8752190470695496, -0.5160676836967468, 1.7883868217468262, 1.3681164979934692, -0.10062793642282486, -0.39732035994529724, -0.0415717288851738, -0.9928769469261169, 0.012122866697609425, -0.8283337354660034, -0.5476288199424744, -0.46990448236465454, -0.049777012318372726, -1.2577491998672485, 0.5312134027481079, -0.012794658541679382, -1.077377200126648, -0.5745290517807007, -0.9754042029380798, -0.0571918860077858, 3.5309364795684814, -0.10416626930236816, -0.5019466876983643, 0.39672160148620605, 0.6656038165092468, -0.6600350737571716, -0.424127995967865, -0.0740131363272667, -1.148905873298645, 0.03129838407039642, 0.1509465128183365, -0.7671236991882324, -0.09633218497037888, -0.134958878159523, -0.24244119226932526, 0.3901331126689911, -0.2912406325340271, -0.18594513833522797, 1.874665379524231, -0.955767035484314, -0.15610654652118683, -0.5312061905860901, -0.8478843569755554, -0.13032156229019165, -0.09012101590633392, -0.0915713980793953, 0.04093363508582115, -1.0723758935928345, -0.041464850306510925, -0.04482163488864899, -0.530210554599762], "layer_type": "fully_connect", "unit_num": 128, "weights": [[0.1444709748029709, 0.08267062902450562, -0.06889387220144272, 0.0837622657418251, 0.04276979714632034, 0.02486089989542961, -0.17457622289657593, -0.12159118056297302, -0.07963083684444427, 0.020545251667499542, 0.012145299464464188, -0.027028825134038925, 0.08298549056053162, -0.05322165787220001, 0.05797694995999336, 0.0462518073618412, 0.10747271031141281, -0.010388204827904701, 0.0830935463309288, 0.039205413311719894, 0.015669051557779312, -0.06002869829535484, 0.027084417641162872, 0.032222356647253036, -0.010654212906956673, 0.13773535192012787, 0.02091873809695244, 0.06194191053509712, 0.07265448570251465, -0.06304585188627243, 0.11297930032014847, -0.05157627910375595, -0.09032873809337616, -0.08061972260475159, 0.009791160002350807, -0.0013996842317283154, 0.01197291724383831, -0.017695244401693344, -0.01057061180472374, 0.07625231146812439, 0.052214138209819794, -0.037461571395397186, 0.13257287442684174, 0.11086337268352509, 0.0822942852973938, -0.0044926791451871395, -0.08926847577095032, -0.09591057896614075, -0.11207154393196106, -0.06769094616174698, -0.058915458619594574, 0.07159222662448883, -0.004209109116345644, -0.0002613058895803988, -0.04512176290154457, -0.003376807551831007, 0.10953373461961746, 0.06399878114461899, -0.10371807217597961, 0.0002922348794527352, 0.03819179907441139, 0.01873830147087574, -0.0413719117641449, -0.011058978736400604, -0.0066570984199643135, 0.058525413274765015, -0.09159432351589203, 0.06770963966846466, 0.08312305063009262, -0.0150223970413208, 0.030915161594748497, -0.0015788782620802522, 0.010915094055235386, -0.084541916847229, 0.003880511736497283, -0.047378480434417725, -0.05646991729736328, 0.03913058340549469, 0.10568337887525558, -0.07749666273593903, -0.0562049075961113, -0.040616925805807114, 0.12491339445114136, 0.006496145389974117, -0.06995473802089691, -0.1301393359899521, -0.040887296199798584, -0.048159562051296234, -0.02743479423224926, 0.06413576006889343, -0.03942243382334709, -0.024334369227290154, -0.09791982918977737, -0.04887940734624863, 0.11142759770154953, 0.05068838223814964, -0.04513239115476608, 0.008073637261986732, -0.06737881898880005, -0.10814759135246277, -0.0940220057964325, -0.011267641559243202, 0.03419794887304306, 0.04832768812775612, 0.02407575584948063, 0.021266622468829155, -0.05968843773007393, 0.04835101589560509, 0.06148872151970863, -0.019776461645960808, -0.08381779491901398, -0.12922927737236023, -0.01674153469502926, -0.09458846598863602, -0.029350757598876953, -0.025644930079579353, -0.035664305090904236, 0.040746383368968964, -0.05772271007299423, -0.06301510334014893, 0.1665460467338562, 0.03749070316553116, 0.08155183494091034, 0.007387485820800066, -0.10049476474523544, 0.01293530035763979, -0.06127527356147766, -0.02890954725444317, -0.013305475935339928, 0.12333949655294418, 0.04445774853229523, -0.023526746779680252, 0.009342779405415058, 0.0031866447534412146, 0.12108942121267319, 0.016982056200504303, -0.13338075578212738, -0.1280055046081543, -0.07847802340984344, -0.058671753853559494, 0.014385838061571121, -0.022521914914250374, 0.04421098530292511, -0.004632566589862108, -0.07931604236364365, 0.050447408109903336, 0.14181868731975555, 0.1053154394030571, 0.0678866058588028, 0.1065683662891388, 0.012799249961972237, 0.028386365622282028, -0.023193931207060814, -0.07720482349395752, -0.10049588978290558, 0.10620759427547455, 0.0899505689740181, 0.0201211366802454, 0.045979369431734085, -0.027915511280298233, 0.04161747917532921, 0.00568087724968791, -0.07848533987998962, -0.08332979679107666, -0.01378333754837513, -0.05387702211737633, 0.068140409886837, -0.0037621967494487762, 0.07744139432907104, -0.06298285722732544, -0.008490917272865772, 0.04165009409189224, 0.1055956780910492, -0.025613432750105858, 0.0779981017112732, 0.007899210788309574, -0.05176766589283943, -0.06883580982685089, -0.14181771874427795, -0.07246983051300049, 0.016395634040236473, 0.031319353729486465, 0.08744724094867706, 0.07065077126026154, 0.041761696338653564, 0.010849175974726677, 0.07647552341222763, -0.09473845362663269, -0.15960800647735596, -0.07483689486980438, 0.03127564117312431, -0.049697816371917725, -0.06914457678794861, 0.041704773902893066, -0.04050818085670471, 0.02743963524699211, -0.10667316615581512, 0.020394545048475266, 0.07444783300161362, 0.0005617262795567513, -0.01102982647716999, 0.057594217360019684, -0.04633025452494621, -0.118993379175663, -0.037226270884275436, 0.0026901913806796074, -0.01469470839947462, 0.11607392877340317, 0.04484351724386215, -0.06397715955972672, 0.05164105445146561, -0.03048490360379219, 0.08826790004968643, 0.0432196743786335, -0.20114244520664215, -0.13793742656707764, -0.07090820372104645, 0.020787036046385765, -0.008433731272816658, 0.09993646293878555, -0.05955170467495918, -0.07321704179048538, -0.024463895708322525, 0.0337880402803421, 0.13947832584381104, 0.027611002326011658, 0.021946845576167107, -0.03810710459947586, -0.03701566904783249, -0.10497933626174927, -0.0777902901172638, 0.026766544207930565, -0.033116646111011505, 0.057062312960624695, 0.08847056329250336, -0.04836013540625572, -0.043042127043008804, -0.05340429022908211, 0.10056871175765991, -0.04035298898816109, -0.2147216796875, -0.05801421031355858, -0.006811951752752066, -0.06283241510391235, -0.03854568302631378, -0.011735653504729271, 0.07037686556577682, -0.06909746676683426, -0.01555393636226654, 0.03412541747093201, 0.16257625818252563, 0.10376545786857605, -0.02634616568684578, -0.012669017538428307, 0.016296928748488426, -0.1148163229227066, -0.12648339569568634, -0.01969277486205101, -0.004873658996075392, 0.08651793748140335, 0.06989164650440216, -0.06520818918943405, 0.017515143379569054, -0.024453792721033096, 0.07010813057422638, -0.0563516803085804, -0.05938860774040222, -0.05241955444216728, -0.04520094394683838, 0.04064783453941345, -0.05405225604772568, 0.08055843412876129, 0.03453575819730759, -0.0792255699634552, 0.03504694253206253, -0.034114159643650055, 0.1517261266708374, 0.11453663557767868, -0.012761748395860195, 0.10677295178174973, -0.053215391933918, 0.0033358647488057613, -0.027686381712555885, 0.019979888573288918, -0.04469480738043785, 0.043455153703689575, -0.008488938212394714, 0.008251601830124855, 0.06781909614801407, 0.0773472860455513, 0.12139281630516052, -0.06916899234056473, -0.15836600959300995, -0.08640313893556595, -0.03757387027144432, -0.026758365333080292, 0.0022057066671550274, -0.03763465955853462, 0.053035423159599304, -0.01888434775173664, -0.033964332193136215, -0.05947257578372955, 0.13581687211990356, 0.07708580791950226, -0.028058398514986038, 0.002574255922809243, -0.02918136492371559, 0.03174719214439392, -0.10132213681936264, -0.07109189033508301, 0.020734041929244995, 0.16458140313625336, -0.007081782445311546, -0.01682921126484871, 0.023716874420642853, -0.06853880733251572, -0.009560372680425644, -0.0704909935593605, -0.13155554234981537, -0.14228320121765137, 0.08334551751613617, 0.009585273452103138, -0.010976331308484077, 0.017403239384293556, 0.04241664707660675, 0.024849113076925278, -0.07947356253862381, 0.008407603949308395, 0.1313757598400116, 0.08177062124013901, -0.04177892580628395, 0.02854878082871437, 0.03613892197608948, -0.07444608956575394, -0.12956653535366058, -0.04747152701020241, 0.00686136819422245, 0.027615167200565338, 0.09386344999074936, 0.023990966379642487, -0.08062785863876343, 0.054530128836631775, 0.02690858393907547, -0.10288014262914658, -0.18114760518074036, -0.019035957753658295, -0.001823999686166644, 0.02088460698723793, -0.01493738405406475, 0.01756565272808075, -0.016932513564825058, -0.08885180950164795, -0.010849379934370518, -0.029722992330789566, 0.13847778737545013, 0.11142783612012863, 0.09450051188468933, 0.023336471989750862, -0.06905427575111389, -0.004602262284606695, -0.05000590160489082, -0.13716955482959747, -0.0912078469991684, 0.1258925348520279, 0.0718587338924408, -0.07639788091182709, -0.030265314504504204, -0.07614045590162277, 0.04094738885760307, -0.03816276416182518, -0.2091653198003769, -0.01182256918400526, -0.05019037052989006, 0.07434256374835968, 0.0009983996860682964, 0.00020237344142515212, 0.05590713024139404, -0.009460972622036934, 0.010910792276263237, 0.04091808944940567, 0.13469906151294708, 0.009766706265509129, 0.09356298297643661, 0.06698809564113617, -0.049863770604133606, -0.07265505194664001, -0.04948049038648605, 0.008476780727505684, 0.005941129755228758, 0.019507547840476036, -0.047628749161958694, 0.03307585418224335, 0.025099532678723335, 0.04724489524960518, 0.06623394042253494, -0.049745842814445496, -0.1616915911436081, -0.01462045218795538, 0.02251666784286499, 0.07045453786849976, 0.030380645766854286, -0.007399977184832096, -0.06992533802986145, -0.12180981785058975, -0.1007578894495964, 0.0422978401184082, 0.05287180840969086, 0.07427515089511871, 0.06928983330726624, 0.08675108850002289, -0.11783428490161896, -0.10195568203926086, -0.05224517732858658, -0.027963582426309586, -0.08897025883197784, 0.011422604322433472, 0.04280826449394226, 0.020935263484716415, -0.07814624160528183, -0.057196903973817825, 0.10060769319534302, -0.023863574489951134, -0.14780616760253906, 0.00477835675701499, 0.06441783159971237, 0.11091900616884232, -0.008110631257295609, 0.0004985326086170971, 0.06648777425289154, 0.005020650569349527, 0.024135656654834747, 0.028404198586940765, 0.042550213634967804, 0.060082558542490005, -0.002857126295566559, 0.006899844389408827, -0.028711434453725815, -0.08555491268634796, 0.0038939097430557013, -0.12596604228019714, -0.06459539383649826, 0.09026307612657547, 0.058041688054800034, -0.05511583015322685, -0.055380694568157196, -0.05902332440018654, 0.052484218031167984, -0.03133609890937805, -0.18852809071540833, -0.13661082088947296, 0.109942726790905, 0.10900883376598358, -0.02779565565288067, 0.09885821491479874, 0.018195372074842453, -0.013013452291488647, -0.06454416364431381, -0.006429171189665794, 0.05337391048669815, 0.05761105939745903, 0.055030930787324905, 0.06259424239397049, -0.019850851967930794, -0.053412701934576035, -0.10733504593372345, 0.01938956417143345, -0.0381954088807106, 0.17137672007083893, -0.03335251659154892, -0.020489931106567383, 0.0545848049223423, -0.07561240345239639, 0.11289212852716446, 0.023327475413680077, -0.13539284467697144, -0.0740964263677597, 0.07443921267986298, 0.04987219348549843, 0.04397297278046608, -0.028739100322127342, 0.03099001757800579, -0.06723693013191223, 0.02113690786063671, 0.041726917028427124, 0.09286385774612427, 0.026213055476546288, -0.018534716218709946, -0.03341762721538544, 0.035128556191921234, 0.0399458222091198, -0.07384703308343887, 0.04904918372631073, 0.06418398022651672, 0.11501546204090118, 0.0283074788749218, 0.020172886550426483, -0.005665903445333242, 0.03459223359823227, 0.0734059140086174, -0.07186251133680344, -0.06861910223960876, 0.019684847444295883, 0.036610718816518784, 0.12695181369781494, 0.09624198824167252, 0.0788210853934288, -0.007404756732285023, -0.01774546690285206, -0.016470573842525482, -0.0349554717540741, 0.1571282297372818, -0.02125050686299801, 0.05345258116722107, 0.10667221248149872, -0.020632723346352577, -0.00022767171321902424, -0.07166416943073273, 0.009631934575736523, -0.05546020343899727, 0.0874716117978096, 0.044261492788791656, -0.0459994338452816, 0.047509606927633286, -0.08260751515626907, -0.012977824546396732, -0.00812980905175209, -0.12159956991672516, -0.020411692559719086, -0.029324565082788467, 0.08862202614545822, 0.044406067579984665, 0.03685454651713371, 0.03470076620578766, -0.019787056371569633, -0.02085859701037407, 0.038071408867836, 0.1313137412071228, 0.0374075248837471, -0.04356032609939575, 0.09952705353498459, 0.019999470561742783, -0.05577977001667023, -0.05054013058543205, -0.02554885670542717, -0.018998239189386368, 0.08536180853843689, 0.05346176400780678, 0.021474240347743034, 0.04659932479262352, 0.02765464037656784, 0.09931941330432892, -0.012248195707798004, -0.1765562742948532, -0.14016355574131012, 0.013380042277276516, 0.02906600385904312, -0.03725055605173111, -0.059389371424913406, 0.06375832110643387, -0.09623464941978455, -0.07079003006219864, 0.04802056774497032, 0.08665481954813004, 0.07797014713287354, -0.0065283277072012424, -0.007658648304641247, -0.0026218954008072615, -0.01175611186772585, -0.05424334481358528, -0.040321700274944305, -0.007909654639661312, 0.08266035467386246, 0.045362550765275955, 0.029955385252833366, -0.032219335436820984, -0.0849304273724556, 0.09692750126123428, 0.03113619238138199, -0.08218837529420853, -0.0293261855840683, -0.01247481256723404, 0.07487030327320099, 0.02075898088514805, 0.04245193675160408, 0.038559265434741974, 0.023064233362674713, -0.04981475695967674, 0.04860161244869232, 0.05755414441227913, 0.05860454961657524, 0.06819625943899155, 0.046346522867679596, -0.03463393822312355, -0.016335466876626015, -0.02295386604964733, -0.07606123387813568, -0.07282935082912445, 0.15122543275356293, 0.09120342135429382, -0.0263866875320673, 0.014900928363204002, 0.016277499496936798, -0.0018838087562471628, 0.03549952432513237, -0.0757356509566307, -0.03870975971221924, 0.013596042059361935, 0.022957686334848404, -0.03632612153887749, -0.04037695750594139, 0.05612587183713913, 0.04191284626722336, -0.0838385745882988, -0.0686224177479744, 0.03905516490340233, 0.046869486570358276, 0.05496063083410263, 0.04191340133547783, -0.0741920918226242, 0.0006446407060138881, -0.042763736099004745, -0.010984087362885475, 0.023625560104846954, 0.047110699117183685, 0.04467908665537834, 0.04153643921017647, 0.013160722330212593, -0.06899137049913406, -0.010668180882930756, 0.07718347758054733, -0.15094497799873352, -0.025525646284222603, 0.03932655230164528, 0.02221064828336239, 0.017275840044021606, 0.06005336716771126, -0.045642074197530746, 0.0335317961871624, 0.04877020791172981, -0.014590799808502197, 0.13860481977462769, -0.0008400391670875251, 0.014907293021678925, 0.005268278066068888, -0.009148968383669853, 0.019433123990893364, -0.09613526612520218, 0.017137639224529266, -0.06283555924892426, 0.1293327659368515, 0.058732230216264725, 0.0011705550132319331, -0.0092479158192873, 0.0037711395416408777, 0.0998900979757309, 0.06598071753978729, -0.10876434296369553, -0.06944339722394943, 0.07219105958938599, 0.10447289794683456, 0.07961945235729218, 0.0027203550562262535, -0.0473751537501812, -0.07203128933906555, -0.043673474341630936, 0.057584259659051895, 0.035104308277368546, 0.0367414765059948, 0.005134693346917629, 0.006516614463180304, -0.0006544932839460671, -0.06585054099559784, -0.060867875814437866, -0.01386626809835434, -0.0009525241330265999, 0.03714499995112419, -0.004915599245578051, -0.046711403876543045, 0.001185227301903069, -0.011004190891981125, 0.04737028852105141, -0.031206659972667694, -0.087044857442379, -0.043117690831422806, 0.05720581114292145, 0.011852285824716091, 0.02722781151533127, -0.0716780349612236, 0.06958135217428207, -0.052258722484111786, -0.07448241859674454, 0.023861883208155632, 0.08455116301774979, -0.04019588977098465, -0.019830968230962753, 0.061207305639982224, -0.07317602634429932, -0.03264109790325165, 0.02857590839266777, -0.06567630171775818, 0.012042280286550522, 0.07429136335849762, 0.039796993136405945, 0.021402478218078613, -0.012096988968551159, -0.07674103230237961, 0.0343322716653347, 0.008430243469774723, -0.1724664270877838, -0.08861152827739716, 0.0509636253118515, 0.04071830213069916, -0.022073982283473015, 0.06024642288684845, 0.05527694895863533, -0.006272485945373774, -0.05034530535340309, -0.052299078553915024, 0.04838114604353905, 0.0631001889705658, 0.10312733799219131, 0.057296302169561386, 0.007743407506495714, -0.10980222374200821, -0.003544214181602001, -0.10368099808692932, 0.017855985090136528, 0.09204912930727005, 0.027964895591139793, 0.03406490013003349, -0.05788769945502281, -0.06933005899190903, 0.028944121673703194, -0.024873437359929085, -0.10806533694267273, -0.10353705286979675, -0.08818814903497696, 0.0019317569676786661, 0.02938091568648815, 0.07223101705312729, 0.01654035411775112, -0.05405688285827637, -0.09651067852973938, -0.055075254291296005, 0.07029759883880615, -0.001508993678726256, -0.0405803918838501, 0.06013840436935425, -0.078097864985466, 0.0074255578219890594, -0.03150602802634239, -0.10090341418981552, 0.013834822922945023, -0.013680183328688145, 0.00730560626834631, 0.030913326889276505, -0.043376848101615906, -0.05090804770588875, 0.010126765817403793, -0.012397372163832188, -0.12357164919376373, -0.07680965214967728, -0.07772071659564972, -0.018274197354912758, 0.07350193709135056, 0.07995125651359558, 0.03410110995173454, -0.049634166061878204, 0.043813299387693405, 0.020976964384317398, 0.13472594320774078, 0.039221443235874176, 0.016483750194311142, 0.003541424637660384, -0.02903028391301632, 0.01942274160683155, 0.028706559911370277, 0.05138169601559639, 0.04589897394180298, 0.0735391154885292, 0.01584748737514019, -0.021975358948111534, -0.010312782600522041, 0.0018732452299445868, 0.1112685576081276, -0.038318999111652374, -0.213330939412117, -0.18665416538715363, -0.09168778359889984, 0.03036862052977085, 0.09112942963838577, 0.04305284097790718, 0.09309972077608109, -0.08740949630737305, -0.06800288707017899, 0.07319541275501251, 0.08200571686029434, 0.02053908072412014, 0.07992623001337051, 0.010885680094361305, 0.014123820699751377, 0.021428115665912628, -0.09839516133069992, -0.01568678393959999, -0.034975815564394, 0.1359819769859314], [-0.0525035634636879, 0.05484304204583168, 0.01931786723434925, -0.05528974160552025, 0.03020806796848774, -0.02529485896229744, 0.004639236722141504, 0.02689281478524208, 0.053054675459861755, -0.0417313389480114, 0.014968298375606537, -0.026362000033259392, -0.009033841080963612, 0.05333817005157471, 0.06641801446676254, -0.026695460081100464, -0.05897015705704689, -0.06573273986577988, 0.07722580432891846, -0.0599767230451107, 0.02154664508998394, 0.037630483508110046, 0.04581638425588608, 0.044796984642744064, -0.03802642598748207, -0.0292791947722435, -0.07009821385145187, -0.01544160582125187, -0.016396280378103256, -0.025263814255595207, -0.005386640317738056, 0.07994750142097473, 0.062457527965307236, 0.015899743884801865, -0.02860441245138645, 0.05945510417222977, 0.05702314153313637, 0.058541636914014816, -0.022734293714165688, 0.05610574781894684, -0.04495283588767052, -0.03008582815527916, 0.06395991891622543, -0.07921846956014633, -0.01579006388783455, -0.035789016634225845, 0.04513378068804741, -0.003579627024009824, 0.015084144659340382, 0.05063020437955856, -0.0075136818923056126, 0.01629801094532013, -0.07563962787389755, 0.028087981045246124, -0.012453805655241013, 0.053364627063274384, -0.04229286313056946, 0.03773195669054985, 0.06019594147801399, -0.027536647394299507, -0.01750432699918747, -0.019912637770175934, -0.007836834527552128, 0.037283025681972504, 0.01837841421365738, -0.07480841875076294, -0.07276548445224762, -0.02431076392531395, -0.042767640203237534, 0.0456177182495594, 0.06082717701792717, 0.07467871159315109, 0.07779034227132797, 0.018426375463604927, -0.07162071019411087, 0.007681462913751602, -0.06882923096418381, 0.06514744460582733, -0.006920826621353626, 0.05868465453386307, -0.03327927738428116, -0.048759277909994125, 0.03168420493602753, -0.012985125184059143, -0.06087470054626465, 0.06437616050243378, 0.0652061402797699, -0.05141439661383629, -0.02325466275215149, 0.046977851539850235, -0.057467520236968994, -0.008963091298937798, 0.010893318802118301, -0.04588019847869873, 0.04985026270151138, 0.03772271052002907, -0.07786392420530319, -0.0561661459505558, 0.06775054335594177, 0.06322801113128662, 0.0010170108871534467, -0.07106214016675949, -0.07293844223022461, 0.021930335089564323, 0.07961907237768173, 0.0040344176813960075, 0.03673063963651657, -0.04712939262390137, 0.02150428295135498, -0.07765839993953705, -0.030818939208984375, -0.05415430665016174, 0.010134072974324226, 0.0363038070499897, -0.009183169342577457, 0.031536445021629333, -0.01237040851265192, -0.07617387175559998, -0.03035178780555725, -0.06733011454343796, -0.07544489949941635, 0.07708677649497986, 0.06809580326080322, -0.04453092813491821, -0.005340364761650562, 0.03131939843297005, 0.07153110206127167, -0.07836343348026276, 0.07040232419967651, -0.013758962042629719, -0.02303778938949108, 0.016262264922261238, -0.04118088632822037, -0.03181665763258934, 0.04048777371644974, 0.00042822270188480616, -0.03987382724881172, -0.012557374313473701, 0.06862076371908188, 0.00855656061321497, -0.05184326320886612, -0.02685592882335186, -0.022087672725319862, 0.003704642876982689, 0.012627284042537212, 0.04213371127843857, 0.06193922460079193, 0.047845929861068726, -0.02406463958323002, 0.05687663331627846, 0.012950283475220203, -0.04667635262012482, 0.053556255996227264, 0.042839035391807556, 0.04270397499203682, 0.021414242684841156, -0.02300974912941456, 0.04147455841302872, 0.04127441719174385, 0.0010324124014005065, -0.04240534082055092, -0.040968894958496094, 0.03308488428592682, 0.012727329507470131, -0.07262976467609406, -0.03329697623848915, 0.03999505937099457, 0.03211378678679466, -0.04042869433760643, -0.025060240179300308, 0.032647863030433655, -0.023227449506521225, -0.0757799819111824, -0.019361067563295364, -0.06403697282075882, -0.05650324001908302, -0.05635448172688484, 0.00951578188687563, 0.003222318133339286, -0.04617560654878616, 0.03411738574504852, 0.04581836238503456, -0.0728532075881958, -0.005074623506516218, -0.019629640504717827, 0.06221378967165947, 0.024320345371961594, 0.04518621414899826, -0.013537615537643433, 0.06836093217134476, -0.04827053099870682, 0.007819832302629948, -0.0178420040756464, -0.045905184000730515, -0.021704860031604767, 0.07618917524814606, -0.06981414556503296, 0.011746863834559917, 0.07490679621696472, 0.01415262371301651, -0.06482015550136566, -0.03194434940814972, 0.015060359612107277, 0.020238112658262253, -0.040337856858968735, -0.04537108913064003, 0.03859811648726463, 0.06287159025669098, 0.05230454355478287, -0.028781628236174583, 0.06788922101259232, -0.06420239806175232, -0.050886593759059906, -0.06433378159999847, -0.046254176646471024, -0.013266104273498058, 0.018118472769856453, -0.07591015100479126, -0.07720395177602768, 0.062393780797719955, -0.020406140014529228, 0.03221903368830681, -0.048627350479364395, 0.06350499391555786, 0.0323273167014122, 0.05568717420101166, -0.04770632088184357, 0.05471815541386604, -0.0017410666914656758, 0.0026545876171439886, -0.03771379590034485, 0.004893104545772076, -0.05555645376443863, -0.027681274339556694, -0.058042772114276886, -0.009437466971576214, -0.03674785792827606, 0.025348464027047157, -0.04430297762155533, -0.0719851702451706, 0.07059270143508911, 0.0032551370095461607, -0.06898315250873566, 0.030086275190114975, 0.033166490495204926, 0.05711418762803078, 0.043151743710041046, 0.023846574127674103, -0.03128015249967575, 0.07535136491060257, 0.08033047616481781, 0.026400431990623474, -0.06812243163585663, -0.006898870225995779, -0.054096635431051254, 0.06768792122602463, 0.01721539907157421, 0.07143288105726242, -0.004005985800176859, -0.037337176501750946, -0.042425837367773056, -0.05405646190047264, -0.00851584505289793, 0.03570019081234932, 0.017359597608447075, -0.06402978301048279, -0.07903818786144257, 0.03396343067288399, 0.055834148079156876, 0.040588680654764175, -0.006067897193133831, -0.0009589650435373187, -0.024261673912405968, 0.06257771700620651, 0.012225859798491001, -0.017095234245061874, 0.02721160277724266, -0.06065506115555763, -0.00558858085423708, 0.026031700894236565, -0.05402308702468872, -0.07056700438261032, 0.06963168829679489, -0.0036427529994398355, 0.05749509111046791, 0.0074598947539925575, -0.05852089077234268, 0.00030203969799913466, 0.020084314048290253, 0.002202016767114401, 0.04440077021718025, 0.07456754148006439, -0.02727341093122959, -0.06819543987512589, -0.07522199302911758, -0.07833553105592728, 0.04315545782446861, 0.05287351459264755, -0.008398715406656265, -0.0794239342212677, -0.025909828022122383, -0.056388214230537415, 0.039613477885723114, -0.0004942626692354679, -0.0742373839020729, 0.007618064526468515, 0.005330034531652927, -0.042594123631715775, 0.06937523186206818, 0.049689289182424545, 0.04711180180311203, 0.012317109853029251, -0.047343600541353226, 0.010757110081613064, -0.02209012396633625, 0.003609767882153392, -0.026914067566394806, 0.030987568199634552, -0.011642847210168839, -0.05413662642240524, 0.03416874632239342, 0.06507691740989685, -0.0004041224892716855, -0.01881927251815796, 0.012302054092288017, -0.06501751393079758, -0.07455012202262878, -0.04407988861203194, -0.030558733269572258, 0.07954198122024536, -0.03882361575961113, -0.010948463343083858, -0.01619531400501728, 0.07985613495111465, -0.05205570533871651, 0.004181503318250179, -0.05631137266755104, -0.03347698226571083, -0.01235655415803194, -0.056114282459020615, -0.07961162179708481, 0.012901697307825089, 0.0646742582321167, 0.052012909203767776, -0.018025418743491173, 0.02784493938088417, 0.07586506754159927, -0.031281087547540665, 0.07994496077299118, 0.07567553222179413, -0.029659701511263847, 0.03988710418343544, -0.056910399347543716, 0.03157827630639076, 0.0686410591006279, -0.05807703733444214, 0.054719388484954834, -0.038505882024765015, -0.02099732868373394, 0.013831086456775665, 0.029735319316387177, -0.05223323032259941, -0.05204182118177414, 0.049536045640707016, -0.07659316062927246, 0.07882481813430786, -0.050100769847631454, -0.016795450821518898, -0.04241051524877548, -0.040883585810661316, 0.0068681975826621056, -0.05724529176950455, -0.07430960983037949, 0.013364210724830627, -0.046591345220804214, 0.05548622086644173, -0.061941035091876984, -0.029344284906983376, -0.019816718995571136, 0.02975388802587986, -0.04660319536924362, -0.004945061169564724, 0.052634358406066895, -0.03983511030673981, -0.003353352192789316, 0.07997321337461472, -0.0607161745429039, 0.0319642499089241, -0.02181442640721798, -0.06971576064825058, 0.05331186577677727, 0.010069992393255234, -0.07859041541814804, 0.051926154643297195, -0.04577191174030304, 0.0423121340572834, -0.024306651204824448, 0.049552071839571, 0.06369633972644806, 0.016311902552843094, 0.02834477089345455, -0.06550197303295135, -0.04498802497982979, -0.06398206204175949, 0.07495998591184616, -0.01849490776658058, -0.049124978482723236, -0.037331804633140564, -0.007608427666127682, -0.06255864351987839, 0.006504272110760212, 0.0030763261020183563, -0.05629337951540947, -0.06857636570930481, 0.07742439955472946, -0.03637251257896423, 0.03095664456486702, 0.042063191533088684, 0.0530199259519577, -0.028042491525411606, 0.019071996212005615, -0.02473883144557476, 0.07444264739751816, -0.020866909995675087, 0.03921128064393997, 0.052405454218387604, -0.057337112724781036, 0.04478422924876213, -0.019083859398961067, -0.059488192200660706, 0.05286788567900658, 0.06348712742328644, -0.0064778816886246204, -0.02340122126042843, 0.0031514570582658052, 0.0196601003408432, -0.03323681652545929, -0.0063751135021448135, -0.06503621488809586, -0.0228937566280365, -0.0053657726384699345, -0.06288498640060425, 0.0526658371090889, -0.03415442630648613, 0.07086379081010818, 0.07970589399337769, 0.012459436431527138, -0.06208236515522003, -0.07777529209852219, 0.059393711388111115, 0.02216440998017788, 0.02931060455739498, -0.06290476769208908, 0.048118725419044495, -0.04363078996539116, 0.05146725848317146, -0.06276492029428482, -0.023943038657307625, 0.07283152639865875, -0.022077668458223343, 0.07838694751262665, 0.04174626246094704, 0.07278575748205185, -0.0023942231200635433, -0.06015559658408165, 0.004421659745275974, 0.018765248358249664, -0.0799567848443985, 0.0648881122469902, -0.030635476112365723, -0.06461513787508011, 0.009571756236255169, 0.007450297474861145, 0.02063700370490551, 0.04194233939051628, 0.03335045650601387, -0.030096963047981262, -0.017132272943854332, -0.00011778141924878582, -0.04220966622233391, -0.05757279694080353, -0.04630226641893387, 0.03881191462278366, -0.05609652027487755, -0.05967678129673004, -0.07472977787256241, -0.06253170222043991, -0.0601491816341877, -0.013475102372467518, 0.06426148861646652, 0.06828237324953079, 0.024139506742358208, 0.07021985203027725, 0.045792531222105026, 0.01351793110370636, 0.03670882061123848, 0.038382671773433685, -0.005124931689351797, -0.03628053516149521, -0.05201395973563194, -0.07943541556596756, 0.02538885921239853, 0.04474606364965439, -0.05378669127821922, -0.012018617242574692, 0.014456801116466522, 0.03496620059013367, -0.05183495581150055, 0.003326496807858348, 0.06061485782265663, 0.04863428696990013, -0.018460197374224663, -0.06623594462871552, -0.050518203526735306, 0.02313248999416828, -0.060770511627197266, 0.023937053978443146, -0.06698496639728546, -0.02427341602742672, -0.011666754260659218, 0.01924516260623932, -0.0481153205037117, 0.044125769287347794, 0.05686729773879051, 0.057815954089164734, -0.030896911397576332, 0.06813373416662216, -0.03758503869175911, -0.04717417061328888, -0.06582055240869522, 0.029367616400122643, -0.01260997075587511, -0.010146018117666245, 0.07690305262804031, -0.05711296945810318, -0.017720652744174004, 0.04272229224443436, 0.009968308731913567, -0.061964187771081924, -0.07752789556980133, 0.0756370797753334, -0.011204993352293968, -0.07679478824138641, 0.00836806371808052, 0.07299600541591644, 0.035329222679138184, -0.06625649333000183, 0.04893091693520546, -0.019718380644917488, 0.02681197226047516, 0.04840461164712906, 0.04781300574541092, 0.0686381608247757, -0.07538989186286926, -0.050387538969516754, -0.0010435564909130335, 0.024195559322834015, 0.008835076354444027, -0.05840980261564255, -0.0024335449561476707, 0.05796181410551071, 0.021885765716433525, -0.060999833047389984, -0.03626762330532074, 0.054239995777606964, 0.011106839403510094, -0.06328348815441132, 0.027070119976997375, -0.02590208128094673, 0.029167938977479935, -0.07189429551362991, 0.06188691407442093, 0.063058041036129, -0.022631093859672546, 0.027909163385629654, 0.04462326690554619, 0.029470175504684448, 0.031112292781472206, 0.05648675188422203, 0.009566325694322586, 0.04875447601079941, -0.04859638959169388, 0.017690889537334442, 0.014103642664849758, 0.06814394146203995, -0.06241268664598465, -0.04339925944805145, 0.017206989228725433, -0.07961007952690125, 0.049935806542634964, -0.0761478841304779, -0.07580190896987915, 0.0498737096786499, -0.0790170356631279, -0.041970912367105484, 0.0307936891913414, -0.034404486417770386, 0.0038223012816160917, -0.06472785025835037, 0.03427418693900108, -0.0322762131690979, -0.0693763867020607, -0.022338910028338432, -0.004341261927038431, 0.0691872090101242, 0.0004988064174540341, -0.049080390483140945, 0.05531908944249153, -0.06197468563914299, 0.03175874426960945, -0.04598202928900719, -0.013042367063462734, -0.04409383609890938, 0.0030754334293305874, -0.07857672870159149, -0.05772452428936958, -0.02243201620876789, 0.07164750248193741, 0.06164659559726715, 0.013465440832078457, -0.07417608052492142, 0.07823392003774643, -0.07389727234840393, 0.06066126748919487, 0.05091286078095436, -0.05921775475144386, 0.061752792447805405, 0.03175467997789383, 0.014754276722669601, -0.0339236855506897, 0.07761022448539734, 0.05421420931816101, -0.028471926227211952, -0.038058020174503326, 0.04387485980987549, -0.022515960037708282, -0.04874956235289574, -0.04368205741047859, -0.03535595163702965, -0.009919621981680393, 0.05788050591945648, -0.06551481783390045, -0.0598139688372612, -0.03096075728535652, 0.01875831000506878, -0.05044718459248543, 0.0029746093787252903, 0.06021871790289879, -0.05764802545309067, 0.05638331174850464, 0.05561022460460663, -0.055757828056812286, -0.06631362438201904, -0.0240496713668108, -0.05616002902388573, -0.05588582903146744, -0.04253971204161644, -0.04622863233089447, -0.07263590395450592, 0.0651089996099472, -0.07795874029397964, 0.052588701248168945, 0.038462430238723755, 0.01726689003407955, -0.06217930093407631, 0.02484573796391487, -0.07272776961326599, -0.06285346299409866, 0.07113563269376755, -0.0034500982146710157, -0.008244922384619713, 0.014329487457871437, 0.0664798691868782, 0.06392837315797806, -0.06910089403390884, 0.055590543895959854, -0.009145833551883698, 0.05796889215707779, -0.03927906975150108, -0.01338181085884571, -0.030208760872483253, 0.04645737633109093, -0.02147630974650383, -0.05673982948064804, -0.061126112937927246, 0.02850414253771305, -0.0449526272714138, 0.07888545095920563, -0.02818482369184494, -0.05613953620195389, 0.040876030921936035, -0.011588267982006073, -0.0375237762928009, 0.004378365818411112, -0.05307396873831749, 0.040498655289411545, -0.060614027082920074, -0.04914776235818863, 0.07266370207071304, -0.029521394520998, 0.051710814237594604, 0.04701017215847969, -0.023874452337622643, 0.0648227259516716, 0.02039683610200882, 0.07335362583398819, 0.013250637799501419, -0.0366843119263649, -0.06454408168792725, -0.012894595973193645, -0.02853867970407009, 0.038421615958213806, 0.07682131230831146, 0.038337983191013336, -0.052089203149080276, 0.042280007153749466, 0.027004064992070198, 0.02579505741596222, 0.027598001062870026, -0.07505232095718384, -0.07379832118749619, -0.008256705477833748, 0.050905004143714905, -0.007613406982272863, -0.0775226354598999, -0.05642370879650116, -0.030637463554739952, 0.06564273685216904, -0.07063241302967072, 0.003184523666277528, -0.002992727095261216, -0.02489393576979637, 0.049200210720300674, -0.06022670120000839, -0.05092063918709755, -0.016137555241584778, 0.043297309428453445, -0.06758899986743927, -0.04076172411441803, 0.02362782694399357, -0.05730099603533745, -0.0336434543132782, -0.0766381099820137, 0.008666644804179668, 0.019258568063378334, -0.04845752567052841, -0.0017732614651322365, -0.009111646562814713, -0.011098010465502739, -0.051435984671115875, 0.018676578998565674, -0.009018126875162125, 0.004511221311986446, 0.011803182773292065, 0.025475414469838142, -0.07333236932754517, -0.03017137199640274, -0.0038624517619609833, -0.025107737630605698, 0.030531447380781174, 0.011252232827246189, 0.009857820346951485, 0.016759175807237625, 0.0688326433300972, -0.022686073556542397, 0.06932235509157181, -0.047155193984508514, -0.01923934742808342, -0.05951012670993805, 0.05267897993326187, 0.00986113864928484, -0.07342154532670975, -0.03761289641261101, -0.05775362625718117, -0.026009194552898407, -0.04375351965427399, -0.019065609201788902, -0.046667758375406265, 0.006084450054913759, 0.055175017565488815, 0.027532199397683144, 0.03191398084163666, 0.002779581118375063, 0.04792288690805435, -0.06505370885133743, 0.051755234599113464, -0.03515294939279556, -0.048685502260923386, 0.00703075248748064, -0.023564817383885384, 0.06229807808995247, 0.06425212323665619, -0.03912406414747238, 0.05474891886115074, -0.027092408388853073, -0.001091972691938281, 0.010729257017374039, 0.022810643538832664, -0.015368511900305748, -0.06871789693832397, -0.005387004930526018, -0.028449954465031624, 0.06792813539505005, -0.05254655331373215, 0.03762897104024887, -0.0435907207429409], [-0.0317864827811718, -0.18368738889694214, -0.09700319916009903, -0.6018478870391846, -0.015531734563410282, 0.13028369843959808, 0.02354099228978157, 0.017866170033812523, 0.022538717836141586, -0.06883292645215988, -0.012021568603813648, -0.14611531794071198, -0.14031453430652618, -0.05235591158270836, -0.09590578079223633, 0.02982562594115734, -0.015152975916862488, -0.03468844294548035, 0.10243762284517288, 0.09024447202682495, 0.19332341849803925, 0.18531210720539093, 0.2391035556793213, 0.18721874058246613, 0.15995186567306519, 0.15418864786624908, -0.02545934170484543, -0.15340514481067657, -0.13679087162017822, -0.4653645157814026, -0.08130595088005066, 0.027685074135661125, -0.03363172709941864, -0.10706670582294464, -0.19512741267681122, -0.18051020801067352, -0.2154744565486908, -0.2608362138271332, -0.18625448644161224, -0.030416352674365044, -0.12433207035064697, -0.0782429426908493, -0.036115895956754684, -0.0992358848452568, -0.04259411618113518, -0.026883482933044434, 0.07689083367586136, 0.032360419631004333, -0.018232014030218124, -0.018317334353923798, -0.0030339215882122517, 0.04025615006685257, 0.03542320802807808, -0.05812634900212288, 0.08048101514577866, -0.3423839807510376, -0.039032187312841415, -0.03859991580247879, -0.004026226233690977, -0.06065516918897629, -0.0867900475859642, -0.12050877511501312, -0.06312265247106552, -0.12162280082702637, -0.0542776919901371, -0.0037944393698126078, -0.2140146791934967, -0.16238996386528015, -0.02613857015967369, -0.017028626054525375, -0.04260784760117531, -0.11466073989868164, -0.04757063835859299, -0.12078031152486801, -0.14774757623672485, -0.03736117482185364, -0.029327111318707466, -0.06346838921308517, 0.09087155014276505, 0.26609987020492554, 0.3777492642402649, -0.08309496194124222, 0.13595034182071686, 0.13814406096935272, 0.170448899269104, -0.020849397405982018, 0.05227205157279968, -0.005866396240890026, 0.006286600138992071, -0.08902812749147415, -0.04917904734611511, -0.020019104704260826, -0.08153168112039566, 0.036278266459703445, -0.02622436173260212, 0.041167017072439194, -0.054551515728235245, -0.17448335886001587, 0.01752203144133091, -0.004471659194678068, -0.022068090736865997, -0.02187623642385006, -0.0725768506526947, -0.10125263035297394, 0.18382684886455536, 0.523979127407074, 0.8681596517562866, 0.3255995810031891, 0.1828203797340393, 0.08752182126045227, 0.11213435977697372, 0.0867280513048172, 0.10649426281452179, 0.0488315150141716, 0.09563883394002914, 0.09279733896255493, -0.057052478194236755, 0.14586353302001953, -0.026321103796362877, -0.008001435548067093, 0.03967210650444031, 0.1488044708967209, 0.16709139943122864, 0.004842093214392662, 0.09663369506597519, 0.10035839676856995, 0.18217164278030396, 0.08131524920463562, 0.05469750985503197, 0.1627378910779953, 0.3299540579319, 0.9458191394805908, 1.2559412717819214, 0.6908798217773438, 0.2840415835380554, 0.051384683698415756, 0.14241772890090942, 0.11423122137784958, 0.1610555201768875, 0.05696070194244385, 0.24346190690994263, 0.05868641287088394, 0.03179227560758591, 0.12949886918067932, 0.005304977763444185, 0.14533665776252747, 0.16948270797729492, 0.22498001158237457, 0.19422802329063416, -0.014382847584784031, 0.19555960595607758, 0.20209169387817383, 0.15981034934520721, 0.11209417134523392, 0.01023003552109003, 0.14159464836120605, 0.3363705575466156, 1.1042805910110474, 1.6052738428115845, 0.8930134773254395, 0.3076604902744293, 0.15413980185985565, 0.27195873856544495, 0.24191677570343018, 0.2488490492105484, 0.07802964001893997, 0.10336462408304214, 0.10534757375717163, -0.025273965671658516, 0.1039452999830246, 0.060012344270944595, 0.028106508776545525, 0.07325491309165955, 0.10891973227262497, 0.14857012033462524, -0.023479055613279343, 0.07432885468006134, 0.18212582170963287, 0.18761835992336273, -0.014376498758792877, -0.02977728843688965, 0.034887731075286865, 0.2517894208431244, 0.9115874767303467, 1.529877781867981, 0.832680344581604, 0.20892369747161865, 0.2315554916858673, 0.2690815031528473, 0.27432781457901, 0.20674096047878265, 0.07498253136873245, 0.08202867209911346, -0.018138056620955467, -0.0953131839632988, 0.07182889431715012, 0.02198362722992897, 0.009074370376765728, 0.0532783642411232, 0.16060736775398254, 0.10148884356021881, -0.013521809130907059, 0.05263129994273186, -0.07480940222740173, 0.03982983157038689, -0.02320357970893383, -0.17143045365810394, -0.01704595983028412, 0.17173932492733002, 0.5635333061218262, 0.9997158646583557, 0.44006380438804626, 0.1532229483127594, 0.13990148901939392, 0.30064404010772705, 0.18756191432476044, 0.0938144251704216, 0.007906327024102211, 0.07132160663604736, -0.019285183399915695, -0.0676102340221405, 0.0049111261032521725, -0.10296118259429932, -0.06865227967500687, -0.035621847957372665, 0.03253373131155968, -0.019243605434894562, -0.08498568832874298, -0.1294306218624115, -0.07453987002372742, -0.08543611317873001, -0.1869669407606125, -0.1910143941640854, -0.1279497593641281, -0.05822519212961197, 0.17100182175636292, 0.4772295653820038, 0.20042838156223297, -0.01977413520216942, 0.17692235112190247, 0.22527901828289032, 0.15046951174736023, 0.027652373537421227, -0.010190391913056374, 0.010488629341125488, 0.012266991659998894, -0.05603974312543869, -0.0475798137485981, -0.048692040145397186, -0.08556497097015381, -0.04860160872340202, -0.033583566546440125, -0.0610310360789299, -0.18484805524349213, -0.07333692163228989, -0.11674126982688904, -0.09274177998304367, -0.26132896542549133, -0.19204843044281006, -0.20846185088157654, -0.08878989517688751, -0.20965255796909332, 0.09866975992918015, -0.09920387715101242, -0.031460952013731, 0.17436908185482025, 0.23559805750846863, 0.15532851219177246, 0.03722541406750679, 0.043093521147966385, 0.0456850565969944, -0.06328917294740677, 0.000609049922786653, 0.028731508180499077, -0.07597273588180542, -0.010849526152014732, 0.08755945414304733, 0.011862965300679207, -0.028360050171613693, -0.08103317022323608, -0.14415347576141357, -0.15474632382392883, -0.10957349091768265, -0.10327456891536713, -0.09502729773521423, -0.06828872859477997, -0.14012476801872253, -0.3673963248729706, -0.15247304737567902, -0.12060292810201645, -0.09160751104354858, 0.12614184617996216, 0.15194950997829437, -0.0011250944808125496, 0.08549094945192337, -0.056492097675800323, -0.03194446861743927, 0.01336404774338007, 0.04377966746687889, 0.0034363744780421257, -0.017858430743217468, -0.06028737872838974, -0.016154862940311432, -0.06662115454673767, -0.009164411574602127, -0.08400851488113403, -0.019244542345404625, -0.0539805069565773, -0.09161246567964554, -0.10757898539304733, -0.041813790798187256, -0.035279419273138046, -0.04334411025047302, -0.3741210997104645, -0.3211926519870758, -0.18532834947109222, -0.12163051217794418, 0.20460475981235504, 0.014275847934186459, -0.02424330823123455, 0.05619198828935623, -0.02693251147866249, 0.049469124525785446, 0.05911969020962715, -0.06374860554933548, 0.04499230161309242, 0.01742273010313511, 0.003547494998201728, 0.04628538340330124, -0.03460710123181343, 0.06585701555013657, -0.0042441170662641525, -0.02464042231440544, -0.038678109645843506, -0.030374474823474884, -0.006160127464681864, 0.0027088725473731756, 0.058012500405311584, -0.02902965433895588, -0.31366756558418274, -0.4499329626560211, -0.25102558732032776, -0.030118951573967934, 0.06629586219787598, -0.04509682580828667, 0.005137916654348373, -0.026056747883558273, 0.03208586573600769, 0.10323435813188553, -0.04685099422931671, 0.02060641162097454, 0.055853258818387985, 0.04033070430159569, 0.012166927568614483, 0.03345504403114319, 0.04260975867509842, 0.09201160818338394, -0.09462272375822067, -0.027792872861027718, 0.015811646357178688, 0.06727267056703568, 0.074663907289505, 0.05452324450016022, -0.0421283021569252, -0.0031059146858751774, -0.3548159897327423, -0.39359307289123535, -0.1960209757089615, -0.07668839395046234, 0.059286005795001984, 0.015356139279901981, 0.06661969423294067, 0.014358709566295147, 0.06381001323461533, -0.03130980581045151, -0.03884716331958771, 0.00012019593850709498, 0.008074775338172913, 0.0006918990984559059, -0.033930063247680664, 0.08986364305019379, 0.09158431738615036, -0.019029775634407997, 0.015004311688244343, -0.0009086648351512849, -0.12068106234073639, 0.05849524959921837, -0.022380812093615532, 0.04775184765458107, -0.09078238904476166, 0.02853776514530182, -0.26477697491645813, -0.23752297461032867, -0.16827629506587982, -0.028558405116200447, -0.0654262825846672, -0.12000926584005356, -0.02563977800309658, 0.00666884845122695, 0.005218957085162401, -0.020049432292580605, -0.030174707993865013, -0.08048515766859055, 0.020978687331080437, 0.03542035073041916, -0.02278953790664673, 0.04738236963748932, -0.09865925461053848, -0.0295423474162817, -0.10778816789388657, -0.041835423558950424, -0.12465117126703262, -0.11183609813451767, -0.07469931989908218, -0.02200962044298649, -0.10595458745956421, 0.018470924347639084, -0.3121224045753479, -0.1350555419921875, -0.08479472249746323, -0.12306885421276093, -0.148092582821846, -0.11197919398546219, -0.035865332931280136, -0.050376661121845245, 0.00960448570549488, -0.04915500059723854, -0.052540142089128494, -0.03725728020071983, 0.049011826515197754, -0.053356073796749115, -0.08400887995958328, -0.046342574059963226, -0.0029551105108112097, 0.07245553284883499, -0.1393696367740631, -0.03231346234679222, -0.14043065905570984, -0.09014004468917847, -0.0005753609584644437, -0.02125796675682068, -0.1419837325811386, 0.02257722057402134, -0.15918539464473724, -0.10967767983675003, -0.15677055716514587, -0.1668093353509903, -0.14337117969989777, -0.21323741972446442, -0.12377876043319702, -0.16805100440979004, -0.1314903199672699, -0.08230915665626526, -0.12203767895698547, -0.15327048301696777, 0.044545602053403854, -0.10274074226617813, -0.02983522042632103, -0.022005468606948853, -0.045399393886327744, -0.037889812141656876, -0.08503345400094986, -0.05500054359436035, -0.05303492024540901, -0.023008333519101143, 0.0017793329898267984, 0.010964274406433105, -0.17079754173755646, 0.051233913749456406, -0.11977096647024155, -0.07373757660388947, -0.024602135643363, -0.2946149706840515, -0.28890666365623474, -0.21678155660629272, -0.1769220530986786, -0.11025373637676239, -0.052501339465379715, -0.07803425937891006, -0.11865346878767014, -0.06355011463165283, 0.03698445111513138, -0.021233361214399338, 0.04952570050954819, -0.030555540695786476, -0.10479265451431274, 0.06831047683954239, 0.010803105309605598, 0.020391620695590973, -0.021748289465904236, 0.08626500517129898, 0.06634675711393356, 0.16960635781288147, -0.013216977939009666, 0.007378085516393185, -0.07952991127967834, 0.03243059664964676, -0.02153458073735237, -0.19664016366004944, -0.22102707624435425, -0.19941093027591705, -0.16834020614624023, -0.10548308491706848, -0.15347467362880707, -0.0326019786298275, 0.03741283714771271, -0.035150982439517975, 0.09417203813791275, 0.011495240963995457, 0.04301364719867706, 0.029891878366470337, -0.047712791711091995, 0.009902401827275753, 0.0335138775408268, 0.11422184854745865, 0.02922392636537552, 0.06925952434539795, 0.14029017090797424, 0.1487320065498352, -0.04273039475083351, 0.05622512847185135, -0.17254993319511414, -0.05189220607280731, -0.10121127218008041, -0.2118011862039566, -0.11164184659719467, -0.13591311872005463, -0.15534237027168274, -0.1105729192495346, -0.05296817421913147, -0.1257682740688324, 0.07599230855703354, 0.008897453546524048, 0.06968739628791809, -0.0340161956846714, 0.014095505699515343, -0.07687608152627945, -0.08851324021816254, 0.09099368005990982, 0.02449173852801323, 0.027171436697244644, 0.0032282520551234484, -0.0020928557496517897, 0.08110138028860092, 0.06860773265361786, -0.029644008725881577, 0.009343817830085754, -0.20713458955287933, -0.1182488277554512, -0.10470003634691238, -0.22068610787391663, -0.06157401204109192, -0.11933385580778122, -0.08617182075977325, -0.12388201802968979, -0.10861138254404068, 0.00817643478512764, 0.03900964558124542, -0.03708996623754501, 0.07020437717437744, -0.013083497993648052, 0.05475059896707535, 0.04239952191710472, -0.10479047149419785, 0.08806843310594559, -0.019399961456656456, 0.10857700556516647, -0.02706049382686615, 0.07261210680007935, 0.07071423530578613, 0.09225047379732132, -0.002876679413020611, 0.005506685934960842, -0.2395312488079071, -0.17595835030078888, -0.13122273981571198, -0.17162320017814636, -0.13372045755386353, -0.07146481424570084, -0.07514604181051254, -0.12194105982780457, -0.05857675150036812, -0.034113358706235886, 0.001937326742336154, 0.027674207463860512, 0.18141314387321472, -0.05374564230442047, 0.03013729490339756, 0.035989075899124146, 0.031138600781559944, -0.017032261937856674, -0.027209028601646423, 0.07883609086275101, 0.04822877421975136, 0.060522500425577164, 0.031705085188150406, 0.03979820758104324, -0.0005526458262465894, -0.01237924862653017, -0.2486729919910431, -0.15782439708709717, -0.1356021910905838, -0.18980993330478668, -0.034511227160692215, -0.07205669581890106, -0.07494433224201202, -0.07788938283920288, -0.03724624589085579, -0.019756121560931206, 0.09381987154483795, 0.006789680104702711, 0.04764774441719055, 0.07115920633077621, -0.03528250753879547, -0.06799326837062836, -0.005744909401983023, 0.061511244624853134, 0.07388220727443695, 0.1188386008143425, -0.041417594999074936, -0.0020918550435453653, 0.010337655432522297, 0.12835738062858582, -0.03159407153725624, 0.01055910438299179, -0.18461406230926514, -0.2539374530315399, -0.03723584860563278, -0.13511121273040771, -0.11878351122140884, -0.00996321439743042, -0.04659172520041466, -0.14453594386577606, -0.08630050718784332, 0.0042022522538900375, 0.08893933147192001, -0.036384280771017075, 0.1378265768289566, -0.021976199001073837, 0.044481437653303146, -0.058491919189691544, 0.012672497890889645, -0.0832466334104538, -0.0538666658103466, -0.015028752386569977, 0.010056592524051666, 0.005331815220415592, -0.05222984403371811, -0.002608581678941846, 0.0012366395676508546, 0.032505638897418976, -0.17912721633911133, -0.15795013308525085, -0.09499681740999222, -0.1613055020570755, 0.009399608708918095, -0.013211519457399845, -0.09895361214876175, -0.029830453917384148, -0.08551164716482162, -0.010288833640515804, 0.09649956226348877, -0.050221532583236694, 0.03450367972254753, -0.05104295164346695, 0.0436740517616272, -0.01005314476788044, -0.051141321659088135, 0.04338715970516205, -0.0010163564002141356, 0.09283483773469925, 0.0014170381473377347, -0.0018544017802923918, 0.06247493252158165, -0.016164839267730713, -0.08482104539871216, 0.03716682270169258, -0.11488167196512222, -0.16170191764831543, 0.00982849020510912, -0.03483676537871361, -0.04202469438314438, -0.020928796380758286, 0.04771221801638603, -0.0009841059800237417, 0.011847623623907566, 0.0453488752245903, 0.03204147517681122, -0.032575927674770355, 0.023014849051833153, 0.06741181761026382, 0.06067262589931488, 0.00016052505816332996, -0.014529251493513584, 0.04673197865486145, -0.03531663119792938, 0.08632376044988632, -0.06968490779399872, 0.07347793877124786, 0.08749477565288544, 0.026194162666797638, -0.07177773118019104, 0.0084508853033185, -0.07701389491558075, -0.17815077304840088, -0.07400525361299515, -0.042193979024887085, -0.05018191784620285, 0.024148235097527504, 0.042130421847105026, -0.04248446971178055, 0.00778109859675169, 0.020320896059274673, 0.06976420432329178, -0.06129690259695053, 0.07604718208312988, -0.002870584139600396, -0.06235167756676674, 0.03695719316601753, -0.10128985345363617, -0.004681084305047989, -4.9183989176526666e-05, 0.017126770690083504, -0.0068986001424491405, 0.008734199218451977, 0.10958471149206161, 0.0905105322599411, -0.041586000472307205, 0.015121398493647575, -0.0957333967089653, -0.1257534772157669, -0.07289110124111176, -0.1292695701122284, -0.013040048070251942, 0.00021226434910204262, 0.004221457988023758, 0.04240112379193306, 0.05817149206995964, 0.04969567432999611, 0.10598572343587875, 0.010627643205225468, 0.011062836274504662, 0.06571720540523529, 0.054846394807100296, -0.051977209746837616, -0.006711270660161972, 0.014390802942216396, -0.01410095114260912, 0.06635342538356781, 0.04208333045244217, 0.04196071997284889, 0.007623343728482723, 0.037562426179647446, -0.07246679067611694, -0.032075803726911545, -0.16915132105350494, -0.2763180732727051, -0.07323025166988373, -0.09187591075897217, -0.06478281319141388, -0.05790841951966286, 0.006581723224371672, 0.10607115179300308, 0.04024997726082802, 0.07059437781572342, 0.04349413141608238, 0.025699611753225327, 0.111716128885746, 0.04651249572634697, 0.0783781185746193, -0.050580453127622604, -0.03133028745651245, -0.05834338068962097, 0.08286425471305847, 0.1254187673330307, -0.020715761929750443, 0.08747085928916931, -0.0002820754889398813, 0.003449683776125312, -0.020583687350153923, -0.0354812927544117, -0.4140218198299408, -0.648029625415802, -0.4075870215892792, -0.4636434018611908, -0.24441030621528625, -0.07194475829601288, -0.013236469589173794, 0.026171399280428886, -0.06284524500370026, -0.002066574525088072, -0.03857681527733803, -0.0026854737661778927, -0.04737886041402817, -0.06290160864591599, 0.027974488213658333, -0.06428130716085434, -0.24301700294017792, -0.11707250028848648, -0.11476870626211166, -0.013302750885486603, -0.10636307299137115, 0.03742003068327904, -0.01706433854997158, -0.08843696117401123, -0.11393004655838013], [0.06647390127182007, 0.011139774695038795, -0.12321504205465317, 0.014893503859639168, 0.17751549184322357, 0.11347843706607819, -0.011249342001974583, -0.04723041504621506, 0.09131132811307907, -0.024586256593465805, 0.03197270631790161, 0.03160429373383522, -0.07543113082647324, 0.08269136399030685, 0.0071175904013216496, -0.06389568746089935, -0.04357638955116272, 0.13558538258075714, 0.07009763270616531, -0.05799780786037445, 0.05375932902097702, 0.022173084318637848, -0.13521428406238556, -0.12235256284475327, -0.040254198014736176, -0.046714555472135544, 0.06628727167844772, -0.07721203565597534, -0.10474138706922531, -0.020329786464571953, 0.21334126591682434, 0.04881776496767998, -0.06815513968467712, 0.022677244618535042, 0.07320218533277512, -0.044373273849487305, 0.025563517585396767, 0.048932041972875595, -0.05835222452878952, -0.013848853297531605, 0.01133269164711237, -0.028447438031435013, -0.009807259775698185, 0.017412753775715828, -0.017160633578896523, -0.04122723639011383, -0.025410128757357597, 0.019443484023213387, -0.0028364199679344893, -0.05588506907224655, 0.009135649539530277, -0.12010271102190018, 0.09959879517555237, -0.08476323634386063, -0.09172781556844711, 0.045048054307699203, 0.19760969281196594, 0.03691351041197777, -0.13882072269916534, -0.004262454807758331, 0.07258716970682144, -0.005025964695960283, -0.049155399203300476, -0.005181991029530764, 0.023188332095742226, -0.0190065149217844, 0.03245452791452408, -0.0004973862669430673, -0.1327269971370697, -0.012584061361849308, 0.11590397357940674, 0.04311904311180115, 0.031513914465904236, -0.07113263756036758, 0.017090827226638794, -0.07236343622207642, -0.10740971565246582, -0.015054610557854176, 0.06981788575649261, -0.04464464262127876, -0.04797108471393585, -0.02397582121193409, 0.16040875017642975, 0.02869030274450779, -0.039430394768714905, 0.005422200541943312, 0.016311977058649063, 0.011036382056772709, 0.02794690616428852, 0.031519047915935516, -0.002047603949904442, 0.03459899500012398, 0.046967726200819016, -0.0233052596449852, 0.018863029778003693, -0.02319270372390747, 0.010149660520255566, -0.009846626780927181, 0.06385194510221481, 0.06907200068235397, -0.0795195922255516, -0.03604813665151596, -0.05583201348781586, -0.037854865193367004, 0.09832336008548737, -0.09477677941322327, -0.0008929749019443989, 0.10975538939237595, 0.12062396109104156, 0.02728203311562538, -0.03326621651649475, 0.055695805698633194, 0.04298635572195053, 0.09547591954469681, 0.0016327250050380826, 0.07165036350488663, -0.015466791577637196, 0.0744377002120018, 0.057455483824014664, -0.02996755950152874, -0.10023986548185349, 0.09261918812990189, 0.076366126537323, 0.07791964709758759, 0.07602474838495255, 0.05323535576462746, -0.052572380751371384, 0.03542671725153923, 0.03995689004659653, 0.05847109854221344, 0.08227156847715378, -0.02625282295048237, -0.08548392355442047, 0.0729314535856247, 0.09908384829759598, -0.06405800580978394, -0.08122186362743378, 0.013050807639956474, 0.1397005170583725, 0.12575839459896088, 0.0698651447892189, -0.06413042545318604, 0.05984129756689072, 0.012153900228440762, 0.03377256542444229, -0.031323451548814774, -0.027834832668304443, -0.010931589640676975, -0.040684424340724945, 0.009396146051585674, 0.034322433173656464, -0.02948497049510479, -0.0796484649181366, 0.03304999694228172, -0.0755850225687027, -0.06288046389818192, 0.04003531113266945, -0.01422782614827156, -0.17074349522590637, -0.10201088339090347, 0.15867547690868378, 0.030032960698008537, -0.09597192704677582, -0.05780591443181038, 0.04235627502202988, -0.0032417497131973505, 0.03333784267306328, 0.03909221291542053, 0.04477248713374138, 2.6470868760952726e-05, 0.04062673822045326, 0.01921764202415943, -0.04863404482603073, -0.03133084625005722, 0.06096062809228897, -0.0586235448718071, 0.04267960414290428, -0.08089395612478256, 0.00046115877921693027, 0.015185628086328506, -0.08580523729324341, 0.026898588985204697, 0.11845134943723679, -0.08786454051733017, -0.13855165243148804, 0.027712330222129822, 0.07099515199661255, 0.004388042259961367, -0.20911654829978943, 0.0382344126701355, 0.049580980092287064, -0.0255769994109869, -0.06307126581668854, -0.05647612363100052, -0.03808923065662384, -0.07352738082408905, -0.04399872571229935, 0.043301403522491455, -0.049849025905132294, 0.04014384001493454, 0.03696104511618614, -0.07461459934711456, 0.010566582903265953, 0.03146545961499214, -0.022603647783398628, -0.0702216625213623, -0.03756244480609894, -0.08543848991394043, 0.020227162167429924, -0.0042387088760733604, -0.15281274914741516, 0.016521966084837914, 0.1398955136537552, -0.017816243693232536, -0.14244458079338074, -0.033883269876241684, 0.15284372866153717, 0.0045792050659656525, -0.07303810119628906, 0.023697758093476295, 0.004334599245339632, -0.05307219550013542, -0.0377979502081871, 0.010102055966854095, -0.11283449828624725, -0.001345141907222569, 0.030259601771831512, -0.055016838014125824, -0.024284569546580315, -0.018610525876283646, -0.0064969961531460285, -0.07062267512083054, -0.008978310972452164, -0.051750022917985916, 0.09197324514389038, -0.09999718517065048, -0.05399066209793091, -0.053081974387168884, 0.09053493291139603, 0.051681749522686005, -0.04037785530090332, -0.02489405870437622, 0.10663556307554245, 0.05695703625679016, 0.061560723930597305, -0.07544896751642227, 0.0508146733045578, -0.006383336614817381, 0.09396686404943466, -0.029935099184513092, -0.07906302064657211, 0.005968804471194744, 0.08998776227235794, 0.0025779479183256626, 0.01181703619658947, 0.06936056166887283, 0.10645534098148346, -0.02018968015909195, 0.06587058305740356, -0.020146118476986885, 0.0547269769012928, -0.07626397162675858, -0.0820620059967041, -0.0015555355930700898, 0.05569157749414444, -0.00965473148971796, -0.039204251021146774, 0.10286769270896912, 0.18600183725357056, 0.06371898204088211, 0.022362586110830307, -0.0005247564986348152, -0.014759684912860394, 0.09064146876335144, -0.02774442732334137, 0.05816381052136421, -0.01630326174199581, 0.011740266345441341, 0.06293097138404846, 0.10309157520532608, -0.03858240321278572, -0.04601398482918739, 0.00010472688154550269, 0.030630143359303474, 0.008021300658583641, 0.07017316669225693, 0.048201825469732285, -0.009917453862726688, -0.11014027893543243, -0.05922548845410347, 0.13662654161453247, 0.05032205581665039, -0.03017258457839489, 0.07845264673233032, 0.04237334802746773, 0.03266681358218193, 0.02593943290412426, -0.05378866195678711, -0.04933031648397446, 0.004090913105756044, 0.09821631759405136, 0.052872125059366226, -0.025115979835391045, -0.01806463487446308, -0.014348738826811314, 0.014894707128405571, 0.03138779103755951, 0.06352518498897552, 0.013347952626645565, 0.0006321124383248389, -0.04692728817462921, -0.01935551129281521, -0.03991290181875229, -0.04561586305499077, -0.013406218029558659, -0.02742072567343712, 0.173359677195549, 0.055909015238285065, -0.035078082233667374, -0.05548326298594475, 0.13270168006420135, 0.07634472101926804, -0.08598291128873825, -0.0059014856815338135, 0.023131120949983597, 0.05053772032260895, 0.03014538064599037, 0.031559187918901443, -0.05469474196434021, 0.02966862916946411, 0.06058887019753456, 0.005242040380835533, -0.07548101991415024, -0.08045458793640137, -0.04241166636347771, -0.08409113436937332, -0.10352805256843567, -0.09729624539613724, -0.008684753440320492, -0.005579579155892134, -0.08111976087093353, 0.033814139664173126, 0.15721453726291656, 0.016178080812096596, -0.0484914667904377, -0.04685354605317116, 0.01687181368470192, -0.00783428642898798, -0.031571052968502045, -0.09340642392635345, 0.004392116330564022, -0.009582363069057465, -0.026807786896824837, -0.07026199251413345, -0.140440434217453, -0.03406847268342972, -0.07897312939167023, -0.07324837893247604, -0.04945071041584015, -0.19023306667804718, -0.03728277236223221, -0.05466374382376671, -0.0987660214304924, -0.020854875445365906, 0.011842126958072186, 0.08521170914173126, 0.06223266199231148, 0.13660097122192383, 0.10495442897081375, 0.06989534944295883, -0.11167425662279129, -0.07008058577775955, 0.1602536290884018, 0.165029838681221, -0.04842763394117355, -0.07740755379199982, 0.03560381382703781, 0.0814792662858963, 0.002073260024189949, 0.022813908755779266, -0.05219529569149017, -0.030025847256183624, 0.0033969185315072536, -0.015326458029448986, -0.12854290008544922, -0.03789182007312775, -0.028201907873153687, -0.07664312422275543, -0.016304081305861473, -0.0009446371695958078, 0.07598776370286942, 0.09870044142007828, 0.08045507967472076, 0.21600967645645142, 0.30979007482528687, 0.2289712280035019, 0.05665361508727074, 0.05197589844465256, 0.22998660802841187, 0.13671505451202393, 0.06517617404460907, 0.032450899481773376, 0.00680124294012785, 0.01777666062116623, 0.11662770807743073, 0.11455634981393814, -0.07452630996704102, 0.06954009085893631, 0.000373833259800449, -0.020328687503933907, 0.06942098587751389, 0.019098468124866486, 0.1738373339176178, 0.09594052284955978, 0.03821646794676781, 0.16295671463012695, 0.13207614421844482, 0.06717550754547119, 0.2824889123439789, 0.26601770520210266, 0.35430440306663513, 0.26285430788993835, 0.06346850842237473, 0.04572952538728714, 0.15846918523311615, 0.20629584789276123, 0.06044388934969902, 0.14046798646450043, 0.15213528275489807, 0.20678608119487762, 0.2459842711687088, 0.16156063973903656, 0.12180371582508087, 0.22642822563648224, 0.2341565191745758, 0.14269573986530304, 0.15201041102409363, 0.31565332412719727, 0.32802724838256836, 0.23608985543251038, 0.3975923955440521, 0.33336153626441956, 0.1291244477033615, 0.11499688774347305, 0.12686137855052948, 0.24276530742645264, 0.3618379533290863, 0.2525470554828644, 0.0942872166633606, 0.036309514194726944, 0.16623064875602722, 0.19785407185554504, 0.15649956464767456, 0.030304521322250366, 0.08086412400007248, 0.06784668564796448, 0.10838141292333603, 0.24893993139266968, 0.06286969780921936, 0.20446181297302246, 0.12281196564435959, 0.12280923128128052, 0.14465510845184326, 0.3094995617866516, 0.3959040343761444, 0.3262118101119995, 0.292065292596817, 0.3984152376651764, 0.0852963998913765, -0.047180645167827606, 0.006407385692000389, 0.1366058737039566, 0.1771775484085083, 0.27092427015304565, -0.056891266256570816, -0.046664364635944366, 0.12301898747682571, 0.1919972449541092, 0.06903114169836044, 0.01390810776501894, -0.002972450340166688, 0.02788768894970417, 0.09099964797496796, 0.06813248991966248, -0.03590935468673706, 0.10737624764442444, 0.10926180332899094, -0.00633470481261611, 0.04223663732409477, 0.009130680002272129, 0.0904923528432846, 0.1670692265033722, 0.10028239339590073, 0.23079659044742584, 0.0180935338139534, -0.15943655371665955, -0.0932745710015297, -0.0026797940954566, 0.09828347712755203, 0.06330927461385727, -0.11253613978624344, -0.07384802401065826, 0.09877946972846985, 0.07079663872718811, -0.08106434345245361, -0.04790723696351051, -0.09978669136762619, 0.05604707822203636, 0.05917978659272194, 0.08553971350193024, -0.08755504339933395, -0.04653290659189224, 0.020009823143482208, -0.15061935782432556, -0.14177930355072021, -0.04366450384259224, -0.004685287829488516, -0.0697883814573288, 0.04017004743218422, 0.006684401072561741, -0.042309485375881195, -0.18127545714378357, -0.07447146624326706, -0.087822325527668, 0.008280322887003422, 0.10818717628717422, -0.09458616375923157, -0.1014094278216362, 0.05632593482732773, -0.008626812137663364, -0.046208661049604416, -0.13477472960948944, -0.0019333630334585905, 0.029240746051073074, -0.04365745559334755, -0.0010319247376173735, -0.16297513246536255, -0.014959492720663548, 0.00606715539470315, -0.02689961902797222, -0.028216198086738586, -0.09713077545166016, -0.0024918480776250362, -0.02789422869682312, 0.009665170684456825, -0.018584106117486954, 0.00923703983426094, -0.08877106755971909, -0.09981352090835571, -0.1407039314508438, 0.0072413599118590355, 0.053299594670534134, -0.11998099833726883, -0.18411953747272491, 0.09902587532997131, 0.05330052226781845, 0.02395554818212986, -0.00994272530078888, 0.0172901414334774, 0.013893417082726955, 0.11449848860502243, 0.02541518025100231, -0.04613851010799408, -0.0051612406969070435, 0.01916397735476494, 0.0011903549311682582, -0.09137899428606033, -0.02690388634800911, 0.06365646421909332, 0.050048697739839554, -0.02374410070478916, 0.010430123656988144, 0.022323450073599815, -0.02282119169831276, -0.0625012069940567, -0.05350320041179657, 0.04782130569219589, 0.06181902810931206, -0.06525490432977676, -0.04025157541036606, -0.03383975848555565, 0.04980875551700592, 0.007384642027318478, -0.026243945583701134, 0.04401027411222458, 0.00841277465224266, 0.10906839370727539, -0.03857485577464104, -0.08393769711256027, -0.025767074897885323, -0.043386310338974, -0.05871378630399704, 0.03374243900179863, -0.024523096159100533, 0.0033979506697505713, 0.02538369596004486, 0.059439197182655334, 0.09120325744152069, -0.010919328778982162, -0.027837254106998444, -0.08890020102262497, -0.0016996865160763264, -0.03131882846355438, 0.05432981252670288, -0.15520478785037994, -0.10632175207138062, 0.12365017086267471, 0.0725770816206932, -0.01940935291349888, -0.06042686849832535, -0.04545273631811142, -0.039183322340250015, 0.06557715684175491, 0.04904411733150482, -0.14767593145370483, 0.03862500190734863, -0.01943875476717949, 0.03380827605724335, -0.06700072437524796, -0.08139698952436447, -0.019005674868822098, 0.05714157223701477, -0.008539484813809395, 0.01514144241809845, 0.06105245277285576, -0.06466469913721085, -0.11053214222192764, -0.0600024089217186, 0.0033268302213400602, -0.09068658202886581, -0.18843241035938263, -0.05796774476766586, 0.06814499944448471, 0.13816478848457336, 0.0013725882163271308, 0.017713699489831924, -0.008383725769817829, 0.06079951301217079, 0.06906402111053467, 0.04279178008437157, -0.057624973356723785, -0.052349258214235306, 0.038803111761808395, -0.08800570666790009, -0.05883123353123665, 0.020330781117081642, -0.015241351909935474, 0.010708007961511612, -0.02538236416876316, -0.019868841394782066, -0.01046628225594759, -0.08243165165185928, -0.07167793065309525, -0.09695862978696823, -0.10850939899682999, -0.032788001000881195, -0.12971055507659912, -0.1468605101108551, 0.09580343961715698, 0.14693716168403625, 0.03780081868171692, 0.017436876893043518, -0.01947605051100254, 0.03484931215643883, 0.0496194064617157, 0.030487999320030212, -0.1526981145143509, 0.04623894765973091, 0.0700664147734642, 0.028695281594991684, 0.003992684185504913, -0.09379737079143524, 0.0787290558218956, -0.003845347324386239, 0.021746642887592316, -0.0656958520412445, -0.03829439356923103, -0.00864327885210514, -0.16265924274921417, -0.1812039017677307, -0.07231462001800537, -0.1042233258485794, -0.13992993533611298, -0.10150013118982315, 0.009766499511897564, 0.044361717998981476, -0.0642019584774971, -0.09178119897842407, -0.04873339831829071, 0.03408888354897499, 0.033174920827150345, -0.0638243779540062, -0.007506615482270718, 0.0019847596995532513, -0.030278731137514114, 0.0048464140854775906, 0.029582075774669647, 0.011732814833521843, 0.016650624573230743, -0.05526486039161682, -0.01325475424528122, -0.05449651554226875, 0.018244275823235512, -0.089920774102211, -0.13421133160591125, -0.1848442256450653, -0.07384295761585236, -0.13378334045410156, -0.15217387676239014, -0.1686597466468811, -0.025384288281202316, -0.07716689258813858, -0.033154118806123734, -0.08161318302154541, -0.08627473562955856, -0.0065847779624164104, -0.02217627689242363, -0.08194845169782639, -0.11778853833675385, 0.05766954645514488, 0.06906409561634064, 0.08935026824474335, 0.04059675708413124, 0.040023185312747955, 0.002130193868651986, -0.08293356001377106, 0.002835409250110388, -0.029273394495248795, -0.0571882538497448, -0.007223829627037048, -0.19952020049095154, -0.1780986785888672, -0.0050043463706970215, -0.1808507740497589, -0.20192688703536987, -0.21571266651153564, -0.13867798447608948, -0.042475853115320206, -0.08242616802453995, -0.052085284143686295, -0.09297561645507812, -0.046530213207006454, 0.0848911926150322, -0.013127107173204422, -0.10349813103675842, -0.03363250195980072, -0.0011284357169643044, 0.08516765385866165, 0.08886869996786118, 0.005395905580371618, 0.07716728746891022, -0.07755311578512192, -0.07269594818353653, 0.018884357064962387, -0.09659025818109512, -0.08802589029073715, -0.095878966152668, -0.1292458474636078, -0.010370157659053802, -0.06682692468166351, -0.2703440189361572, -0.1841093897819519, -0.13814936578273773, -0.12041114270687103, -0.17540498077869415, -0.13624617457389832, -0.1396222859621048, 0.04564173147082329, -0.06206716597080231, 0.0002229234523838386, -0.061177920550107956, 0.046699073165655136, 0.011670676060020924, 0.004507532808929682, -0.019031191244721413, -0.0691574364900589, 0.020013926550745964, -0.0956156849861145, -0.09753281623125076, -0.16794687509536743, -0.16748622059822083, -0.07791969925165176, -0.3331688344478607, -0.2451537400484085, -0.16863340139389038, -0.2076442539691925, -0.31189998984336853, -0.20574647188186646, -0.18825185298919678, -0.29396748542785645, -0.22371932864189148, -0.19778361916542053, -0.20961256325244904, -0.12313300371170044, -0.15021727979183197, -0.1426870971918106, -0.1007687896490097, -0.1860811412334442, -0.13049522042274475, -0.06193895637989044, -0.060033660382032394, -0.1366560161113739, -0.1692732870578766, -0.293391615152359, -0.26720312237739563, -0.3292240500450134], [-0.007587690372020006, 0.08992570638656616, 0.03962115943431854, 0.05707640200853348, -0.07538098841905594, 0.03503234311938286, -0.021306058391928673, -0.048978567123413086, -0.03212002292275429, 0.06498902291059494, 0.08230038732290268, 0.12025119364261627, -0.006216042209416628, 0.05251763015985489, 0.08819975703954697, 0.05413127318024635, -0.01753244176506996, -0.009216243401169777, -0.1468341052532196, -0.08904367685317993, -0.0807870626449585, -0.2349579781293869, -0.05592334270477295, -0.10887186974287033, -0.2475639432668686, -0.15258817374706268, 0.03223558887839317, 0.07622512429952621, 0.025958050042390823, 0.07389270514249802, 0.05185006931424141, -0.06695582717657089, -0.014304017648100853, -0.0006706509739160538, -0.0002836594940163195, -0.0029302015900611877, 0.008075525052845478, 0.03343856334686279, 0.08121269196271896, 0.0891779214143753, -0.002711193636059761, -0.014759634621441364, 0.03345801681280136, 0.03913699835538864, -0.063067726790905, -0.10565631091594696, -0.09443046897649765, -0.02472517266869545, -0.10947930067777634, -0.13221056759357452, -0.13721497356891632, -0.13758637011051178, 0.0374717153608799, 0.05882823467254639, 0.049078308045864105, -0.0441078320145607, 0.03608425334095955, 0.06224767863750458, -0.018820563331246376, 0.012969664297997952, 0.07997464388608932, 0.06394314020872116, -0.02321767993271351, -0.005318933632224798, -0.014117729850113392, -0.016901817172765732, 0.10396281629800797, 0.09590747952461243, 0.027342921122908592, 0.0017111547058448195, 0.016818903386592865, -0.021148866042494774, -0.021504787728190422, -0.03554079309105873, -0.10943073779344559, -0.10760711133480072, -0.0178147554397583, -0.07783408463001251, -0.00586093682795763, -0.026615403592586517, 0.0034089176915585995, 0.07317556440830231, 0.0036881607957184315, 0.0274339709430933, 0.06666617840528488, -0.0692858174443245, 0.017048921436071396, 0.07862453162670135, 0.06776341050863266, -0.04282131791114807, 0.024867193773388863, 0.08470269292593002, 0.07757963985204697, -0.02240198664367199, -0.01493055559694767, -0.011427663266658783, -0.0033770541194826365, -0.07054971158504486, -0.0010889597469940782, -0.06730538606643677, 0.0441640168428421, -0.007079262286424637, -0.04207123816013336, -0.11545813083648682, 0.08516650646924973, -0.04320378229022026, -0.04889514669775963, 0.041069529950618744, 0.05725874751806259, -0.0503234937787056, 0.055462390184402466, -0.06025185063481331, -0.03423895686864853, 0.01890777051448822, 0.018843283876776695, -0.013926771469414234, 0.042541004717350006, 0.09506814181804657, 0.07052257657051086, 0.002574412152171135, 0.12814445793628693, -0.06271859258413315, -0.06495090574026108, -0.01216224767267704, 0.03866635262966156, -0.026719097048044205, -0.027756402269005775, 0.0006856523687019944, -0.10888505727052689, -0.017518237233161926, 0.07869326323270798, 0.0519065298140049, -0.07366728782653809, 0.04251185804605484, 0.061667460948228836, -0.03153558447957039, -0.042936574667692184, -0.002095902105793357, 0.0010144429979845881, 0.013175435364246368, -0.016168123111128807, 0.08523159474134445, 0.008796262554824352, 0.03713022917509079, -0.0076740519143640995, 0.1053256243467331, 0.0024170095566660166, -0.005007248371839523, -0.06398047506809235, -0.04242737218737602, -0.03399806469678879, -0.09641534835100174, -0.03628774732351303, -0.11528567224740982, 0.004004235379397869, -0.042020492255687714, 0.04141104593873024, 0.03473074361681938, 0.041259508579969406, -0.03411351516842842, 0.015673428773880005, 0.0705079734325409, -0.041928742080926895, 0.0772428810596466, 0.08229672163724899, -0.006165441125631332, -0.01249497476965189, 0.04401731118559837, 0.08846127986907959, 0.07667658478021622, 0.02204984240233898, -0.03627797216176987, 0.022289078682661057, 0.06948816776275635, 0.006683955434709787, 0.007959124632179737, 5.7745604863157496e-05, -0.12607239186763763, -0.010326296091079712, -0.11561749875545502, -0.043189793825149536, 0.012447821907699108, 0.07413990795612335, 0.05961529165506363, -0.08517909795045853, -0.032600630074739456, 0.07911404222249985, 0.050732024013996124, -0.04405173286795616, 0.06445088237524033, -0.029178934171795845, -0.044722408056259155, 0.09713125228881836, 0.07712087780237198, -0.018706616014242172, 0.03506413847208023, 0.048615463078022, -0.030128929764032364, 0.0942755863070488, 0.06373097002506256, -0.04775126278400421, 0.020124608650803566, -0.05409475043416023, -0.1123993769288063, -0.11272016167640686, -0.027504466474056244, -0.09711417555809021, -0.00961318239569664, 0.05575975775718689, -0.08005544543266296, -0.042729344218969345, -0.0352286733686924, 0.059981584548950195, 0.09641947597265244, -0.026283036917448044, 0.08624881505966187, 0.031820133328437805, -0.009309107437729836, -0.027760284021496773, 0.09874674677848816, -0.01729443296790123, 0.06590576469898224, 0.001248036976903677, 0.03222484141588211, 0.1085146814584732, -0.026973513886332512, -0.07419439405202866, 0.03439071774482727, 0.0661497712135315, -0.07634986937046051, -0.10861927270889282, -0.15708725154399872, -0.06413684040307999, -0.13245834410190582, 0.07356376200914383, -0.04057840630412102, -0.0951276496052742, 0.05407026410102844, 0.0011271968251094222, 0.11137402802705765, -0.021938171237707138, 0.007277904078364372, 0.0435265451669693, 0.10015135258436203, 0.06422213464975357, 0.09454195946455002, 0.01607886515557766, 0.10503976047039032, 0.09257780760526657, 0.09717479348182678, 0.013358070515096188, -0.010935863479971886, 0.020833225920796394, 0.0895017683506012, -0.024306846782565117, -0.02060340903699398, -0.03605111688375473, -0.14703969657421112, -0.11629129201173782, -0.002175763249397278, 0.0536038912832737, -0.038745757192373276, -0.07602714002132416, -0.06554760783910751, -0.011186867021024227, 0.09173449128866196, 0.07112865149974823, 0.08413449674844742, 0.05726344510912895, 0.10786749422550201, -0.06446206569671631, -0.016830235719680786, 0.017542719841003418, 0.019050326198339462, 0.025910554453730583, 0.06373871117830276, 0.07578344643115997, 0.027702681720256805, 0.050374168902635574, 0.07157203555107117, -0.004313170909881592, -0.018883513286709785, -0.1355893462896347, -0.1081552729010582, -0.10554679483175278, -0.11799358576536179, -0.02409060113132, -0.04021664708852768, -0.011068206280469894, 0.03165311738848686, -0.0056553734466433525, 0.06472432613372803, 0.11450104415416718, 0.01062349695712328, -0.001305958372540772, 0.06526119261980057, 0.03892887383699417, 0.06302618980407715, 0.006123533938080072, 0.04490083083510399, 0.10766157507896423, 0.07697182148694992, 0.07890193164348602, -0.059753451496362686, -0.07308175414800644, 0.05995972827076912, 0.0371045246720314, -0.08894889056682587, -0.017483161762356758, -0.02187526412308216, -0.11027640104293823, -0.09249190986156464, 0.009170878678560257, 0.016594799235463142, 0.007811385672539473, -0.06199624389410019, 0.015502456575632095, 0.028892099857330322, -0.005582979880273342, 0.10251244157552719, 0.10536456108093262, 0.020286329090595245, 0.04239292070269585, 0.09025150537490845, 0.0899825170636177, 0.0870901346206665, 0.019405348226428032, -0.006366858258843422, -0.00219506723806262, -0.01028501708060503, -0.07331009954214096, 0.047714415937662125, -0.0005468482268042862, -0.082260861992836, -0.06933220475912094, -0.010824034921824932, -0.06403516978025436, -0.066911980509758, 0.0018388464814051986, -0.06960181891918182, -0.09946936368942261, -0.017980914562940598, -0.02932439185678959, 0.019724559038877487, 0.12470664083957672, 0.08452615886926651, 0.10489635914564133, 0.038971155881881714, 0.05653601884841919, 0.06815934926271439, 0.10192635655403137, 0.09625792503356934, 0.11141170561313629, 0.08656926453113556, -0.03595323488116264, -0.013395119458436966, 0.03009914979338646, 0.08642888814210892, 0.07223730534315109, -0.07771331071853638, 0.0364866741001606, -0.08351501077413559, -0.09394100308418274, 0.0021393350325524807, 0.04906082525849342, -0.004799428395926952, -0.061731934547424316, 0.005582333076745272, -0.07140609622001648, 0.05254005640745163, 0.04942430928349495, -0.011389323510229588, -0.03246236592531204, -0.004090066067874432, -0.005962459370493889, -0.02328556217253208, 0.04391849786043167, 0.010125950910151005, 0.008531511761248112, 0.04932963475584984, -0.04942513257265091, -0.002951344009488821, 0.011094050481915474, 0.04287333786487579, 0.06743783503770828, -0.029213154688477516, 0.05079812556505203, -0.0655118003487587, -0.017107758671045303, -0.03796451911330223, 0.053048841655254364, -0.07219133526086807, -0.047184836119413376, -0.062085721641778946, 0.05115810036659241, -0.024069620296359062, 0.04612654075026512, 0.07422322034835815, -0.019442541524767876, 0.019605349749326706, -0.0006170084234327078, -0.027290375903248787, 0.01669919677078724, 0.048442937433719635, -0.031153496354818344, 0.0495813824236393, 0.07922279834747314, 0.07673222571611404, 0.030478572472929955, 0.03627081960439682, 0.08025574684143066, -0.046147026121616364, 0.08569086343050003, 0.01538789365440607, -0.04934924840927124, -0.0643363669514656, 0.03242751583456993, -0.047979552298784256, -0.01910977065563202, -0.004724880214780569, -0.07131054252386093, 0.06951287388801575, -0.010989571921527386, -0.021630603820085526, 0.012653994373977184, -0.09132537990808487, -0.08976199477910995, 0.008885886520147324, -0.03052867017686367, 0.06847028434276581, 0.05330059677362442, 0.038319770246744156, 0.02485477179288864, 0.06560847163200378, -0.07182115316390991, 0.08975109457969666, -0.02740890346467495, -0.004836396314203739, 0.08394444733858109, -0.041599445044994354, -0.06599923968315125, 0.05544000491499901, 0.12699465453624725, -0.0990835428237915, -0.09782442450523376, 0.06042762100696564, 0.05193905904889107, -0.02296203188598156, 0.002023616572842002, -0.02657206915318966, -0.0021779334638267756, 0.04628856107592583, -0.09959004819393158, -0.07346563041210175, 0.00655288714915514, -0.019975800067186356, 0.0032051654998213053, -0.03299955651164055, -0.01678456738591194, 0.06300706416368484, -0.04039674997329712, 0.024100923910737038, 0.03945882245898247, 0.002153476933017373, 0.08853603154420853, -0.05614417791366577, -0.0904393196105957, 0.034330371767282486, 0.09849676489830017, 0.02055441215634346, 0.07147330790758133, 0.003571391338482499, -0.020660480484366417, -0.0316733755171299, -0.08141430467367172, 0.00047796915168873966, -0.061407431960105896, 0.009354408830404282, -0.06317809969186783, 0.01860184781253338, 0.008037157356739044, 0.06558576971292496, -0.03371729329228401, -0.07598121464252472, -0.009006906300783157, -0.0279481653124094, 0.0338420495390892, 0.002864276757463813, 0.09122411906719208, 0.00888854917138815, 0.10389340668916702, -0.052325379103422165, -1.6321720977430232e-05, 0.05144442617893219, 0.17415596544742584, 0.029110975563526154, -0.04316401854157448, 0.07135677337646484, 0.11443888396024704, -9.236297046300024e-05, 0.058504197746515274, 0.04588070511817932, -0.04981326684355736, -0.08461074531078339, -0.1011812835931778, 0.011115703731775284, 0.024540813639760017, 0.05949545279145241, -0.01744856685400009, 0.07659759372472763, 0.02273544855415821, 0.06061837822198868, -0.02321023866534233, 0.05842939764261246, 0.08247186988592148, 0.06109493970870972, 0.06220823526382446, 0.037126269191503525, -0.017265301197767258, 0.07179892063140869, 0.07431677728891373, -0.022429808974266052, 0.07302376627922058, 0.12730297446250916, -0.010834568180143833, 0.01222165022045374, 0.049437325447797775, -0.03877002373337746, -0.04426117613911629, 0.01044717151671648, -0.13515529036521912, -0.06931810081005096, 0.07990612089633942, -0.027165666222572327, 0.04053083434700966, -0.08355983346700668, 0.06361126899719238, 0.016394037753343582, -0.011335988529026508, -0.013558339327573776, 0.06460487097501755, 0.08622570335865021, 0.17930138111114502, 0.13537128269672394, 0.038807474076747894, 0.08837113529443741, 0.07266005873680115, 0.029365174472332, 0.09795475751161575, 0.06503351032733917, 0.0410245805978775, -0.01591603271663189, 0.03368797153234482, -0.05767330154776573, -0.07954972237348557, -0.052860669791698456, -0.07922685891389847, -0.09239764511585236, -0.10020477324724197, -0.06956441700458527, -0.024512920528650284, -0.07904910296201706, 0.06986570358276367, -0.007821078412234783, -0.09021095931529999, -0.049664851278066635, 0.07117795944213867, 0.014306189492344856, 0.1695532500743866, 0.15457262098789215, 0.0592818446457386, 0.1684170663356781, 0.12542518973350525, 0.007210648152977228, -0.010366054251790047, 0.01646500639617443, 0.09507240355014801, 0.03092675656080246, -0.033102527260780334, 0.0411345511674881, 0.010723605751991272, -0.16980576515197754, -0.03829199820756912, -0.12897902727127075, -0.11348670721054077, -0.09052915871143341, -0.0963355079293251, -0.012665384449064732, 0.034782376140356064, 0.02913455106317997, -0.06942971795797348, -0.007572405971586704, -0.010808574967086315, 0.07191678881645203, 0.14683327078819275, 0.14815223217010498, 0.10420410335063934, 0.1020665094256401, 0.17230799794197083, -0.030407985672354698, -0.08326097577810287, -0.057675156742334366, -0.05404704809188843, 0.04720807075500488, -0.09190572053194046, -0.09534987807273865, 0.028721537441015244, -0.10802812874317169, -0.05207516625523567, -0.09669943153858185, -0.12425021827220917, -0.13930743932724, -0.10512932389974594, -0.03476722911000252, 0.005831412971019745, -0.08538851141929626, -0.12262225896120071, 0.08054832369089127, 0.06038917601108551, -0.030224988237023354, 0.08871346712112427, 0.10377468168735504, 0.1446468085050583, 0.19785699248313904, 0.09484649449586868, -0.11371983587741852, 0.0022494997829198837, -0.08243974298238754, -0.041811589151620865, 0.05615246668457985, -0.08812716603279114, -0.08315372467041016, 0.04831584170460701, -0.06444016098976135, -0.15106767416000366, -0.08436097949743271, -0.16630642116069794, -0.11028555035591125, -0.15397945046424866, -0.1576261818408966, -0.049866098910570145, 0.05460841581225395, -0.0790594220161438, -0.001311450731009245, 0.09552252292633057, 0.09090951085090637, 0.1468246579170227, 0.18303368985652924, 0.13084441423416138, 0.208001971244812, 0.05868232250213623, -0.10722789168357849, -0.15666432678699493, -0.16299988329410553, -0.018093515187501907, 0.014602185226976871, -0.08893866091966629, -0.06810624152421951, -0.008992437273263931, -0.12113238126039505, -0.04515150561928749, -0.09869104623794556, -0.04483397677540779, -0.1848107874393463, -0.17911361157894135, -0.049731697887182236, 0.09585803747177124, 0.0021250504069030285, -0.10755801200866699, -0.016586922109127045, 0.09353197365999222, 0.03652549535036087, 0.11540138721466064, 0.11789466440677643, 0.12888698279857635, 0.20328935980796814, 0.07987499982118607, -0.08168144524097443, -0.14981280267238617, -0.1514928936958313, -0.08850933611392975, -0.09239403903484344, -0.07008214294910431, -0.005878449883311987, -0.014698449522256851, -0.052359990775585175, -0.047061268240213394, -0.0954534113407135, -0.10486485809087753, -0.1433422714471817, -0.12158011645078659, -0.02974696084856987, -0.028511861339211464, 0.0016007128870114684, -0.04892143979668617, 0.058400265872478485, 0.06222609058022499, 0.1576024442911148, 0.12952770292758942, 0.1268002688884735, 0.18137133121490479, 0.15674373507499695, -0.0036154198460280895, -0.05210002139210701, -0.19266267120838165, -0.13620029389858246, -0.047412071377038956, -0.11462437361478806, -0.10569501668214798, 0.017341619357466698, -0.06851376593112946, -0.1529356986284256, -0.1472143530845642, -0.08095470815896988, -0.221806138753891, -0.2033972442150116, -0.1501481831073761, -0.1253519058227539, -0.016225801780819893, 0.016821736469864845, -0.06595047563314438, 0.09554125368595123, 0.09994193911552429, 0.02218434400856495, 0.21560999751091003, 0.21195264160633087, 0.28365617990493774, 0.22601129114627838, 0.08942481875419617, -0.1310315877199173, -0.16894446313381195, -0.20831896364688873, -0.08970028162002563, -0.13299190998077393, -0.1387893706560135, -0.06618577241897583, 0.02961674891412258, -0.14964742958545685, -0.12254921346902847, -0.1162765696644783, -0.12588530778884888, -0.13913124799728394, -0.13294899463653564, -0.055021557956933975, 0.07033953815698624, 0.041618723422288895, 0.03956177458167076, 0.13070307672023773, 0.07591727375984192, 0.17173311114311218, 0.13097301125526428, 0.2778981626033783, 0.23033127188682556, 0.2767519950866699, 0.040549714118242264, -0.12713772058486938, -0.1505732387304306, -0.19668318331241608, -0.13306990265846252, -0.16777069866657257, -0.13632728159427643, -0.06539435684680939, -0.11713481694459915, -0.20953556895256042, -0.0972893089056015, -0.12044329196214676, -0.16769206523895264, -0.22974127531051636, -0.2186218947172165, -0.02156318537890911, 0.13645391166210175, 0.06805386394262314, -0.026177896186709404, 0.16232550144195557, 0.10564686357975006, 0.17215397953987122, 0.18005318939685822, 0.2387107014656067, 0.17197944223880768, 0.2353285253047943, -0.05215951427817345, -0.032061126083135605, -0.11914375424385071, -0.06391703337430954, -0.029375778511166573, -0.13928362727165222, -0.05156756564974785, -0.08678937703371048, 0.007825969718396664, -0.14921879768371582, -0.05198604613542557, -0.056475792080163956, -0.18775521218776703, -0.18810106813907623, -0.1830400973558426, -0.059472329914569855, 0.1968621462583542, 0.08600391447544098, -0.020861200988292694, 0.04885247349739075, 0.12072208523750305, 0.06979061663150787, 0.025945600122213364, 0.08096655458211899, 0.025510702282190323, -0.0012912553502246737], [0.0005809590220451355, -0.060262762010097504, -0.03080441802740097, -0.07741163671016693, -0.02086043357849121, 0.006019473075866699, 0.041672155261039734, -0.07490185648202896, 0.03250603377819061, -0.038258299231529236, 0.06391918659210205, -0.07604792714118958, -0.03995007649064064, -0.02269495278596878, 0.024687528610229492, -0.03493887931108475, -0.051217906177043915, 0.005363740026950836, -0.033532559871673584, -0.07327423244714737, 0.023024700582027435, -0.0073952749371528625, 0.03333670645952225, -0.015205338597297668, 0.05532458424568176, -0.04644998908042908, -0.04157479479908943, -0.07161234319210052, 0.04705837368965149, -0.03879488632082939, 0.038289718329906464, -0.019135750830173492, -0.05632376670837402, -0.07499033212661743, 0.0706910640001297, -0.00829789787530899, 0.06329606473445892, -0.04112926498055458, 0.013096868991851807, 0.0313190296292305, -0.06992360204458237, -0.03642483055591583, -0.07824252545833588, -0.059872668236494064, 0.0665174126625061, -0.03408943861722946, -0.04279526323080063, 0.07667316496372223, -0.0515245720744133, 0.0316268727183342, -0.0037570223212242126, 0.03238341212272644, 0.028193987905979156, -0.052371375262737274, 0.034250035881996155, -0.048484183847904205, -0.012198962271213531, 0.042165592312812805, -0.020706679672002792, -0.0544133260846138, -0.02002163603901863, -0.02033882960677147, 0.06536509096622467, -0.006442360579967499, 0.0033666417002677917, 0.06797972321510315, -0.018980182707309723, -0.045817781239748, 0.07516324520111084, 0.06704428791999817, 0.014011450111865997, 0.04521492123603821, -0.06845850497484207, 0.020737677812576294, -0.004788994789123535, -0.04491985961794853, -0.058822691440582275, 0.029075153172016144, 0.05874450504779816, -0.07499304413795471, 0.04215126484632492, -0.019322562962770462, -0.027034517377614975, -0.03396003320813179, 0.0676383525133133, 0.04652704298496246, -0.06994348019361496, 0.034891240298748016, 0.07819832861423492, -0.04052266478538513, 0.05163341760635376, -0.028406862169504166, -0.07953374832868576, -0.07383327186107635, -0.006046377122402191, -0.03961101919412613, 0.0042200759053230286, -0.031652845442295074, 0.07079263031482697, 0.04568251967430115, 0.0568123459815979, 0.014919981360435486, -0.016253113746643066, -0.02473640814423561, 0.07441231608390808, -0.0017134994268417358, 0.059458717703819275, -0.02438928931951523, -0.05384276062250137, 0.05711790919303894, 0.023248814046382904, -0.07586134970188141, 0.033368200063705444, 0.02890460193157196, -0.07223692536354065, -0.004738830029964447, 0.040459468960762024, 0.06679704785346985, 0.007425718009471893, 0.07071541249752045, -0.01168542355298996, -0.07472410053014755, -0.011481888592243195, -0.011948175728321075, -0.05487116426229477, 0.05245058238506317, -0.026669416576623917, -0.06897848099470139, -0.03231346979737282, -0.03572128713130951, -0.03285970538854599, -0.03207406774163246, 0.04507088661193848, -0.052975356578826904, -0.06398504227399826, -0.03316778317093849, -0.036337099969387054, 0.06231318414211273, -0.030932143330574036, -0.053740356117486954, -0.07865409553050995, 0.03352684527635574, -0.016846798360347748, -0.005924597382545471, 0.07868963479995728, 0.01446976512670517, -0.009023629128932953, -0.05114869028329849, 0.01252022385597229, 0.018424473702907562, -0.030739177018404007, -0.057499609887599945, -0.0053163692355155945, -0.03593198582530022, 0.07123361527919769, 0.031688787043094635, 0.07586121559143066, -0.07540268450975418, 0.010418251156806946, 0.005669444799423218, 0.06388281285762787, 0.06381794810295105, -0.054308757185935974, 0.049665436148643494, -0.04825391620397568, -0.0651630312204361, 0.033203691244125366, 0.058791741728782654, 0.06055930256843567, 0.00010613352060317993, -0.016935236752033234, -0.031157497316598892, 0.02700338512659073, -0.07806456089019775, 0.061613231897354126, -0.06388397514820099, -0.029304709285497665, -0.07583398371934891, -0.018533986061811447, -0.03747197613120079, 0.015219725668430328, 0.06633025407791138, -0.015941038727760315, 0.014641806483268738, -0.004995599389076233, -0.021469634026288986, -0.03386605158448219, 0.037397563457489014, -0.07337818294763565, 0.005971446633338928, 0.013924673199653625, 0.07970099151134491, -0.008143842220306396, 0.0747002512216568, -0.014881990849971771, 0.06604024767875671, -0.054810911417007446, -0.022044897079467773, -0.009404107928276062, 0.07557794451713562, -0.06578369438648224, -0.0008973106741905212, -0.0765206515789032, -0.0277080200612545, 0.01297808438539505, 0.041629984974861145, -0.03560206666588783, -0.032899606972932816, 0.06554372608661652, -0.02733222022652626, 0.011507824063301086, 0.0038400664925575256, -0.009271226823329926, -0.034233540296554565, 0.008663669228553772, -0.05862604081630707, 0.01200171560049057, 0.006832398474216461, 0.05727660655975342, 0.019000343978405, 0.0334748700261116, -0.06873703747987747, -0.055502645671367645, -0.04468424245715141, -0.01779671385884285, -0.06141349673271179, -0.015130579471588135, 0.010840736329555511, -0.032205961644649506, 0.07668618857860565, 0.06351232528686523, 0.030113503336906433, 0.017657332122325897, 0.021406710147857666, -0.024742331355810165, -0.013967439532279968, -0.06537830829620361, 0.04592704772949219, 0.07592347264289856, -0.05467303842306137, 0.03410012274980545, 0.005168557167053223, -0.0023215562105178833, 0.05101048946380615, -0.06306260079145432, 0.03804981708526611, 0.06850630044937134, 0.04253678768873215, -0.046035971492528915, -0.07722954452037811, 0.0072610750794410706, 0.07936465740203857, -0.07232408225536346, -0.06116005405783653, 0.061513081192970276, 0.041465528309345245, -0.06041697412729263, -0.04590614140033722, 0.0032160356640815735, -0.04395335540175438, 0.003749735653400421, 0.07114258408546448, 0.06327234208583832, 0.053084880113601685, 0.033052958548069, -0.01003081351518631, -0.03386175259947777, 0.05262938141822815, 0.007194191217422485, -0.07687730342149734, -0.06713327765464783, -0.01661534607410431, -0.04647791013121605, 0.037783436477184296, -0.008797205984592438, -0.03548828884959221, -0.07387043535709381, -0.026415511965751648, -0.05192175507545471, 0.005765661597251892, 0.05037893354892731, -0.052260998636484146, -0.07953763008117676, -0.017670001834630966, -0.057571329176425934, 0.012084558606147766, -0.015028499066829681, 0.03996920585632324, 0.019723013043403625, 0.010945670306682587, 0.045488953590393066, 0.04943442344665527, -0.004709690809249878, 0.06445448100566864, -0.07932201772928238, 0.034248411655426025, -0.0465981625020504, -0.0026641860604286194, 0.06725865602493286, 0.07981312274932861, 0.07659970223903656, -0.01912105828523636, -0.00956936925649643, 0.018598727881908417, 0.0438695028424263, -0.047718267887830734, 0.009281031787395477, 0.039539821445941925, -0.026664182543754578, 0.051488474011421204, -0.03706204518675804, 0.0580020546913147, -0.04361472278833389, -0.0772356390953064, 0.0033836066722869873, 0.06614571809768677, 0.061045706272125244, 0.06371413171291351, -0.0011867359280586243, 0.04522620141506195, 0.009626157581806183, 0.01239117980003357, -0.03304296359419823, -0.0028561726212501526, -0.06229659169912338, 0.03476919233798981, 0.052068039774894714, -0.0678267553448677, -0.02743406966328621, 0.04288429021835327, -0.04735139012336731, -0.015812166035175323, -0.06987499445676804, -0.04723195731639862, -0.07289789617061615, -0.03878292441368103, -0.07887905091047287, -0.038996372371912, 0.0065405950881540775, -0.07017020881175995, -0.03268998861312866, 0.001542478334158659, 0.03745240345597267, 0.034745953977108, -0.043989840894937515, 0.03297156095504761, -0.0662761926651001, 0.018354538828134537, -0.059880342334508896, -0.022923048585653305, -0.06928954273462296, 0.06729517877101898, 0.07973005622625351, 0.055538661777973175, 0.07763434946537018, -0.06614481657743454, 0.03181944414973259, -0.009235271252691746, -0.04641679674386978, 0.008863406255841255, 0.0236574225127697, -0.054632388055324554, -0.046122170984745026, 0.009865465573966503, -0.010850870981812477, -0.05962012708187103, 0.008567990735173225, 0.05573727935552597, -0.08003231883049011, -0.07848917692899704, -0.050981439650058746, -0.06205160915851593, -0.020078208297491074, -0.038931459188461304, 0.06618843972682953, -0.03145424276590347, 0.06470638513565063, -0.06819221377372742, 0.03316529095172882, -0.04776204004883766, 0.04200677573680878, 0.06622500717639923, 0.0363345742225647, -0.004708420485258102, 0.003466811031103134, 0.011810279451310635, -0.034310877323150635, -0.04401438310742378, -0.026817932724952698, 0.037445083260536194, -0.04362842068076134, -0.02949417568743229, 0.030076494440436363, 0.0800270214676857, 0.06808716058731079, -0.05269991233944893, 0.07725540548563004, -0.032599836587905884, -0.07786702364683151, 0.06697750091552734, 0.07302208989858627, 0.07582119852304459, -0.05991363152861595, 0.0005640553426928818, -0.055593397468328476, 0.028228892013430595, 0.06043728068470955, 0.020157381892204285, -0.04374748468399048, 0.05414765700697899, -0.07822100818157196, 0.031779561191797256, 0.07552611082792282, -0.007841930724680424, 0.06992492079734802, -0.071865975856781, -0.0695241242647171, 0.046952903270721436, 0.06303732842206955, 0.04164823889732361, 0.045264825224876404, 0.004073714837431908, -0.0627729669213295, -0.061257753521203995, -0.028253672644495964, -0.03683428466320038, 0.05300149694085121, 0.067473404109478, 